fc1.weight,fc1.bias,fc2.weight,fc2.bias
"[[ 3.14919911e-02 -7.03999326e-02 -4.52785045e-01  3.64079535e-01
  -1.29657507e-01 -1.31936574e+00 -2.04740897e-01  7.22010076e-01
   9.52495694e-01 -5.12596183e-02]
 [-4.28840607e-01 -2.61255503e-01 -2.74170488e-01  1.04175739e-01
  -1.44449198e+00 -2.61684626e-01  4.46412683e-01 -1.65843487e-01
   2.34883368e-01  6.20721757e-01]
 [ 5.20755768e-01  5.13532937e-01 -8.22783932e-02  2.74434566e-01
  -1.43349731e+00  3.69260460e-01  4.86092299e-01 -2.25284266e+00
  -6.88483417e-01 -1.82979539e-01]
 [ 5.97868741e-01 -9.75920409e-02 -1.27614617e+00 -2.68176854e-01
   7.63156652e-01 -1.57047784e+00  5.15850544e-01 -9.01381075e-01
   1.32245827e+00 -1.59191608e+00]
 [ 4.24391538e-01  4.40220654e-01 -1.10153683e-01  8.28053728e-02
  -1.18517661e+00  4.67010081e-01  5.20328462e-01 -1.67544305e+00
  -3.28103781e-01 -5.63946545e-01]
 [-7.44762123e-01 -2.98816085e-01  1.48855209e-01  1.40316918e-01
   1.12768281e+00 -2.58159041e-01 -4.50193793e-01  2.15837073e+00
   6.22372888e-03  9.64191079e-01]
 [-4.20217097e-01  6.48640394e-02  8.90161574e-01  2.29720250e-01
  -5.33820450e-01  1.05632925e+00 -3.93530577e-01  6.03285372e-01
  -8.97486985e-01  1.15911090e+00]
 [ 4.06687468e-01  3.21090490e-01  4.19522285e-01 -2.20419511e-01
   1.65790308e+00  2.92873234e-01 -5.86472809e-01  7.92470813e-01
  -1.12356003e-02 -1.46607244e+00]
 [-8.73569727e-01  3.28834563e-01 -4.47187990e-01 -1.96027253e-02
   2.50347376e+00  4.55246836e-01  5.85422873e-01  6.47768974e-01
   1.41478896e+00 -8.33888412e-01]
 [-1.43660688e+00 -6.71871006e-01 -1.34389371e-01  2.59653717e-01
   3.58191758e-01  9.40873444e-01 -4.42077696e-01  3.02437395e-01
   1.23365331e+00  2.21802878e+00]
 [-1.14102626e+00 -5.44897199e-01 -1.07491136e-01  1.15788899e-01
   2.77134120e-01  7.70773113e-01 -3.16118866e-01  2.64326960e-01
   1.01012921e+00  1.66350484e+00]
 [ 3.87477249e-01 -1.94482192e-01 -6.11378789e-01  5.76563701e-02
  -1.48216212e+00  2.51701269e-02  1.86653897e-01  1.20045558e-01
  -5.26722908e-01 -1.78429857e-01]
 [ 9.36972022e-01 -5.02292067e-02 -4.78078008e-01 -3.27753156e-01
  -1.93588996e+00  1.03497751e-01  5.65833509e-01 -8.24224591e-01
  -7.52250552e-02 -2.44655758e-01]
 [ 1.32855490e-01 -1.38087377e-01  1.80403024e-01 -2.90755808e-01
  -3.26747966e+00  3.77359599e-01  4.24232334e-01 -6.11069143e-01
  -2.01536223e-01 -1.60667992e+00]
 [ 2.54829139e-01  5.34144938e-02  5.83149910e-01 -1.91762179e-01
   3.47377777e-01  2.02172697e-01 -3.37806553e-01 -1.96350765e+00
  -1.45002589e-01 -1.99568045e+00]
 [ 6.21662773e-02 -1.71071477e-02 -1.18372507e-01  2.90873796e-01
   2.05830671e-02 -1.87738732e-01 -9.58573222e-02  6.64493665e-02
   4.10272777e-02  2.97078538e+00]
 [-1.92692541e-02  2.34790929e-02  4.21589494e-01 -5.29862940e-01
   1.71050861e-01  1.32944381e+00  2.88421005e-01 -6.61804676e-01
  -9.19997096e-01 -2.28780523e-01]
 [-2.07321402e-02 -1.51435554e-01 -7.83584826e-03 -8.38633060e-01
  -8.94297287e-02 -1.97171479e-01  2.61879057e-01  1.37240410e+00
   1.84758902e-01 -1.08028936e+00]
 [ 3.10957402e-01  3.06698024e-01 -4.49991273e-03  1.88547343e-01
  -3.10425344e-03  1.33790262e-02 -3.49563621e-02 -4.39998433e-02
   7.72845522e-02  1.71889496e+00]
 [-1.91321656e-01 -2.59254919e-03  6.72638655e-01  4.05075938e-01
  -7.32702255e-01 -9.03435349e-01  4.33518559e-01  1.43636119e+00
   3.68725002e-01  8.26981843e-01]
 [-1.19553423e+00 -4.72638249e-01  2.78595388e-01  5.66259444e-01
   1.81516886e+00 -4.46378797e-01 -8.33043277e-01  3.75437212e+00
   1.41055226e-01  1.62607169e+00]
 [ 5.77190578e-01 -2.43218452e-01  1.16055027e-01  2.54428517e-02
   1.74473238e+00 -2.56254613e-01 -4.45838302e-01  1.24503815e+00
   1.80072033e+00  1.09635341e+00]
 [ 7.58353829e-01 -1.98076203e-01 -7.96912968e-01 -4.46387380e-01
  -2.05443263e+00 -8.26299116e-02  4.39148545e-01  3.87409478e-01
  -2.07797617e-01 -1.24876106e+00]
 [ 7.62404740e-01  3.02240074e-01 -1.78495318e-01 -3.77804548e-01
  -1.19816017e+00  2.13503405e-01  5.04232407e-01 -2.73428202e+00
  -3.11893195e-01 -6.32542551e-01]
 [-8.70584011e-01  3.17707926e-01 -4.71562386e-01  4.89425868e-01
   2.31118894e+00  2.71426648e-01  6.27935886e-01 -7.55638629e-02
   1.05885589e+00  6.05583429e-01]
 [ 8.79248857e-01 -4.41452116e-02 -4.67745006e-01 -7.90094435e-02
  -1.95307362e+00  1.44739717e-01  4.97360855e-01 -9.35128212e-01
  -2.42123395e-01 -6.08435739e-03]
 [-8.88313949e-01  3.26321751e-01 -4.62807119e-01  6.46245539e-01
   2.35595322e+00  1.51448488e-01  6.07555449e-01 -1.08561344e-01
   1.09150231e+00  8.65301192e-01]
 [ 1.68708432e-02 -1.27423927e-02 -1.03726378e-02  7.27919698e-01
   3.87586743e-01 -2.04587936e-01 -2.55689472e-01 -4.26710904e-01
   2.46007174e-01  1.81209660e+00]
 [-8.27946126e-01  6.50144458e-01 -7.45262265e-01  4.56766449e-02
   1.42034709e+00  5.99233508e-01  8.32586527e-01  1.37994602e-01
  -8.45386028e-01 -9.29737568e-01]
 [ 5.57524741e-01 -3.98575902e-01  4.38755363e-01 -1.67378455e-01
  -9.88322377e-01 -3.26999962e-01 -4.51627165e-01  2.61859130e-02
   3.23381484e-01  5.58867157e-01]
 [-1.94795817e-01  4.58432036e-03  8.96192133e-01  6.03796244e-01
  -9.11209464e-01 -1.20686102e+00  5.22613704e-01  1.73101223e+00
   4.38649774e-01  1.29059958e+00]
 [ 6.60413980e-01 -2.69672692e-01  1.10229328e-01  1.31659448e-01
   1.94977641e+00 -3.16190153e-01 -5.12367904e-01  1.26764548e+00
   2.08785939e+00  1.51839232e+00]
 [-5.64568400e-01 -1.00552306e-01 -5.81477433e-02 -3.47981811e-01
  -1.28290093e+00 -1.80849284e-01  3.94527733e-01  1.01590216e+00
   6.13610327e-01 -6.40094995e-01]
 [-2.29267538e-01 -6.49624467e-02 -4.99425143e-01  2.38091890e-02
  -3.11572760e-01 -1.62262246e-01  3.45229924e-01  1.73063266e+00
   1.26575768e-01  1.45692372e+00]
 [-1.38330474e-01  1.33721024e-01 -1.72253430e-01  1.21767513e-01
   3.02740431e+00 -3.21386606e-01 -3.84881794e-01  7.23640800e-01
   2.56543875e-01  1.11343753e+00]]","[ 1.2085992   0.6191763   0.03027773 -0.7030413   0.04442953  0.31682897
  0.45503697 -0.7088065   0.54055375  0.51669097  0.44998518 -0.05251722
 -0.67468005 -1.6188157  -0.44181353  2.618797   -1.2014565   0.24797703
  1.4848098   1.0818684   0.23778981  0.33043355 -0.25055498 -0.04487602
  0.848139   -0.70892483  0.8748415   0.24540496 -0.18661837  0.39835358
  1.3698553   0.29614913  0.86417925  0.3803906   1.4566855 ]","[[-2.2408192  -1.5608388   2.0470254   2.3091006  -1.9712999  -3.2755284
  -3.2988658   1.0939455   0.9654104   2.6967883  -3.3921266  -1.0255424
  -2.558506    2.7766054   2.2752767   3.436808    1.612165    0.7045551
   1.3251706  -2.9987676   4.152212   -3.4490006   0.90252995 -3.7425818
  -2.957231    2.4563084   2.0622704  -1.2620806   0.7704465  -1.2974406
   2.2057757   2.9732008   0.76998925 -2.8357248  -3.1033597 ]]",[0.2818663]
"[[ 3.14919911e-02 -7.03999326e-02 -4.52785045e-01  3.64079535e-01
  -1.29657507e-01 -1.31936574e+00 -2.04740897e-01  7.22010076e-01
   9.52495694e-01 -5.12596183e-02]
 [-4.28840607e-01 -2.61255503e-01 -2.74170488e-01  1.04175739e-01
  -1.44449198e+00 -2.61684626e-01  4.46412683e-01 -1.65843487e-01
   2.34883368e-01  6.20721757e-01]
 [ 5.20755768e-01  5.13532937e-01 -8.22783932e-02  2.74434566e-01
  -1.43349731e+00  3.69260460e-01  4.86092299e-01 -2.25284266e+00
  -6.88483417e-01 -1.82979539e-01]
 [ 5.97868741e-01 -9.75920409e-02 -1.27614617e+00 -2.68176854e-01
   7.63156652e-01 -1.57047784e+00  5.15850544e-01 -9.01381075e-01
   1.32245827e+00 -1.59191608e+00]
 [ 4.24391538e-01  4.40220654e-01 -1.10153683e-01  8.28053728e-02
  -1.18517661e+00  4.67010081e-01  5.20328462e-01 -1.67544305e+00
  -3.28103781e-01 -5.63946545e-01]
 [-7.44762123e-01 -2.98816085e-01  1.48855209e-01  1.40316918e-01
   1.12768281e+00 -2.58159041e-01 -4.50193793e-01  2.15837073e+00
   6.22372888e-03  9.64191079e-01]
 [-4.20217097e-01  6.48640394e-02  8.90161574e-01  2.29720250e-01
  -5.33820450e-01  1.05632925e+00 -3.93530577e-01  6.03285372e-01
  -8.97486985e-01  1.15911090e+00]
 [ 4.06687468e-01  3.21090490e-01  4.19522285e-01 -2.20419511e-01
   1.65790308e+00  2.92873234e-01 -5.86472809e-01  7.92470813e-01
  -1.12356003e-02 -1.46607244e+00]
 [-8.73569727e-01  3.28834563e-01 -4.47187990e-01 -1.96027253e-02
   2.50347376e+00  4.55246836e-01  5.85422873e-01  6.47768974e-01
   1.41478896e+00 -8.33888412e-01]
 [-1.43660688e+00 -6.71871006e-01 -1.34389371e-01  2.59653717e-01
   3.58191758e-01  9.40873444e-01 -4.42077696e-01  3.02437395e-01
   1.23365331e+00  2.21802878e+00]
 [-1.14102626e+00 -5.44897199e-01 -1.07491136e-01  1.15788899e-01
   2.77134120e-01  7.70773113e-01 -3.16118866e-01  2.64326960e-01
   1.01012921e+00  1.66350484e+00]
 [ 3.87477249e-01 -1.94482192e-01 -6.11378789e-01  5.76563701e-02
  -1.48216212e+00  2.51701269e-02  1.86653897e-01  1.20045558e-01
  -5.26722908e-01 -1.78429857e-01]
 [ 9.36972022e-01 -5.02292067e-02 -4.78078008e-01 -3.27753156e-01
  -1.93588996e+00  1.03497751e-01  5.65833509e-01 -8.24224591e-01
  -7.52250552e-02 -2.44655758e-01]
 [ 1.32855490e-01 -1.38087377e-01  1.80403024e-01 -2.90755808e-01
  -3.26747966e+00  3.77359599e-01  4.24232334e-01 -6.11069143e-01
  -2.01536223e-01 -1.60667992e+00]
 [ 2.54829139e-01  5.34144938e-02  5.83149910e-01 -1.91762179e-01
   3.47377777e-01  2.02172697e-01 -3.37806553e-01 -1.96350765e+00
  -1.45002589e-01 -1.99568045e+00]
 [ 6.21662773e-02 -1.71071477e-02 -1.18372507e-01  2.90873796e-01
   2.05830671e-02 -1.87738732e-01 -9.58573222e-02  6.64493665e-02
   4.10272777e-02  2.97078538e+00]
 [-1.92692541e-02  2.34790929e-02  4.21589494e-01 -5.29862940e-01
   1.71050861e-01  1.32944381e+00  2.88421005e-01 -6.61804676e-01
  -9.19997096e-01 -2.28780523e-01]
 [-2.07321402e-02 -1.51435554e-01 -7.83584826e-03 -8.38633060e-01
  -8.94297287e-02 -1.97171479e-01  2.61879057e-01  1.37240410e+00
   1.84758902e-01 -1.08028936e+00]
 [ 3.10957402e-01  3.06698024e-01 -4.49991273e-03  1.88547343e-01
  -3.10425344e-03  1.33790262e-02 -3.49563621e-02 -4.39998433e-02
   7.72845522e-02  1.71889496e+00]
 [-1.91321656e-01 -2.59254919e-03  6.72638655e-01  4.05075938e-01
  -7.32702255e-01 -9.03435349e-01  4.33518559e-01  1.43636119e+00
   3.68725002e-01  8.26981843e-01]
 [-1.19553423e+00 -4.72638249e-01  2.78595388e-01  5.66259444e-01
   1.81516886e+00 -4.46378797e-01 -8.33043277e-01  3.75437212e+00
   1.41055226e-01  1.62607169e+00]
 [ 5.77190578e-01 -2.43218452e-01  1.16055027e-01  2.54428517e-02
   1.74473238e+00 -2.56254613e-01 -4.45838302e-01  1.24503815e+00
   1.80072033e+00  1.09635341e+00]
 [ 7.58353829e-01 -1.98076203e-01 -7.96912968e-01 -4.46387380e-01
  -2.05443263e+00 -8.26299116e-02  4.39148545e-01  3.87409478e-01
  -2.07797617e-01 -1.24876106e+00]
 [ 7.62404740e-01  3.02240074e-01 -1.78495318e-01 -3.77804548e-01
  -1.19816017e+00  2.13503405e-01  5.04232407e-01 -2.73428202e+00
  -3.11893195e-01 -6.32542551e-01]
 [-8.70584011e-01  3.17707926e-01 -4.71562386e-01  4.89425868e-01
   2.31118894e+00  2.71426648e-01  6.27935886e-01 -7.55638629e-02
   1.05885589e+00  6.05583429e-01]
 [ 8.79248857e-01 -4.41452116e-02 -4.67745006e-01 -7.90094435e-02
  -1.95307362e+00  1.44739717e-01  4.97360855e-01 -9.35128212e-01
  -2.42123395e-01 -6.08435739e-03]
 [-8.88313949e-01  3.26321751e-01 -4.62807119e-01  6.46245539e-01
   2.35595322e+00  1.51448488e-01  6.07555449e-01 -1.08561344e-01
   1.09150231e+00  8.65301192e-01]
 [ 1.68708432e-02 -1.27423927e-02 -1.03726378e-02  7.27919698e-01
   3.87586743e-01 -2.04587936e-01 -2.55689472e-01 -4.26710904e-01
   2.46007174e-01  1.81209660e+00]
 [-8.27946126e-01  6.50144458e-01 -7.45262265e-01  4.56766449e-02
   1.42034709e+00  5.99233508e-01  8.32586527e-01  1.37994602e-01
  -8.45386028e-01 -9.29737568e-01]
 [ 5.57524741e-01 -3.98575902e-01  4.38755363e-01 -1.67378455e-01
  -9.88322377e-01 -3.26999962e-01 -4.51627165e-01  2.61859130e-02
   3.23381484e-01  5.58867157e-01]
 [-1.94795817e-01  4.58432036e-03  8.96192133e-01  6.03796244e-01
  -9.11209464e-01 -1.20686102e+00  5.22613704e-01  1.73101223e+00
   4.38649774e-01  1.29059958e+00]
 [ 6.60413980e-01 -2.69672692e-01  1.10229328e-01  1.31659448e-01
   1.94977641e+00 -3.16190153e-01 -5.12367904e-01  1.26764548e+00
   2.08785939e+00  1.51839232e+00]
 [-5.64568400e-01 -1.00552306e-01 -5.81477433e-02 -3.47981811e-01
  -1.28290093e+00 -1.80849284e-01  3.94527733e-01  1.01590216e+00
   6.13610327e-01 -6.40094995e-01]
 [-2.29267538e-01 -6.49624467e-02 -4.99425143e-01  2.38091890e-02
  -3.11572760e-01 -1.62262246e-01  3.45229924e-01  1.73063266e+00
   1.26575768e-01  1.45692372e+00]
 [-1.38330474e-01  1.33721024e-01 -1.72253430e-01  1.21767513e-01
   3.02740431e+00 -3.21386606e-01 -3.84881794e-01  7.23640800e-01
   2.56543875e-01  1.11343753e+00]]","[ 1.2085992   0.6191763   0.03027773 -0.7030413   0.04442953  0.31682897
  0.45503697 -0.7088065   0.54055375  0.51669097  0.44998518 -0.05251722
 -0.67468005 -1.6188157  -0.44181353  2.618797   -1.2014565   0.24797703
  1.4848098   1.0818684   0.23778981  0.33043355 -0.25055498 -0.04487602
  0.848139   -0.70892483  0.8748415   0.24540496 -0.18661837  0.39835358
  1.3698553   0.29614913  0.86417925  0.3803906   1.4566855 ]","[[-2.2408192  -1.5608388   2.0470254   2.3091006  -1.9712999  -3.2755284
  -3.2988658   1.0939455   0.9654104   2.6967883  -3.3921266  -1.0255424
  -2.558506    2.7766054   2.2752767   3.436808    1.612165    0.7045551
   1.3251706  -2.9987676   4.152212   -3.4490006   0.90252995 -3.7425818
  -2.957231    2.4563084   2.0622704  -1.2620806   0.7704465  -1.2974406
   2.2057757   2.9732008   0.76998925 -2.8357248  -3.1033597 ]]",[0.2818663]
"[[ 3.14919911e-02 -7.03999326e-02 -4.52785045e-01  3.64079535e-01
  -1.29657507e-01 -1.31936574e+00 -2.04740897e-01  7.22010076e-01
   9.52495694e-01 -5.12596183e-02]
 [-4.28840607e-01 -2.61255503e-01 -2.74170488e-01  1.04175739e-01
  -1.44449198e+00 -2.61684626e-01  4.46412683e-01 -1.65843487e-01
   2.34883368e-01  6.20721757e-01]
 [ 5.20755768e-01  5.13532937e-01 -8.22783932e-02  2.74434566e-01
  -1.43349731e+00  3.69260460e-01  4.86092299e-01 -2.25284266e+00
  -6.88483417e-01 -1.82979539e-01]
 [ 5.97868741e-01 -9.75920409e-02 -1.27614617e+00 -2.68176854e-01
   7.63156652e-01 -1.57047784e+00  5.15850544e-01 -9.01381075e-01
   1.32245827e+00 -1.59191608e+00]
 [ 4.24391538e-01  4.40220654e-01 -1.10153683e-01  8.28053728e-02
  -1.18517661e+00  4.67010081e-01  5.20328462e-01 -1.67544305e+00
  -3.28103781e-01 -5.63946545e-01]
 [-7.44762123e-01 -2.98816085e-01  1.48855209e-01  1.40316918e-01
   1.12768281e+00 -2.58159041e-01 -4.50193793e-01  2.15837073e+00
   6.22372888e-03  9.64191079e-01]
 [-4.20217097e-01  6.48640394e-02  8.90161574e-01  2.29720250e-01
  -5.33820450e-01  1.05632925e+00 -3.93530577e-01  6.03285372e-01
  -8.97486985e-01  1.15911090e+00]
 [ 4.06687468e-01  3.21090490e-01  4.19522285e-01 -2.20419511e-01
   1.65790308e+00  2.92873234e-01 -5.86472809e-01  7.92470813e-01
  -1.12356003e-02 -1.46607244e+00]
 [-8.73569727e-01  3.28834563e-01 -4.47187990e-01 -1.96027253e-02
   2.50347376e+00  4.55246836e-01  5.85422873e-01  6.47768974e-01
   1.41478896e+00 -8.33888412e-01]
 [-1.43660688e+00 -6.71871006e-01 -1.34389371e-01  2.59653717e-01
   3.58191758e-01  9.40873444e-01 -4.42077696e-01  3.02437395e-01
   1.23365331e+00  2.21802878e+00]
 [-1.14102626e+00 -5.44897199e-01 -1.07491136e-01  1.15788899e-01
   2.77134120e-01  7.70773113e-01 -3.16118866e-01  2.64326960e-01
   1.01012921e+00  1.66350484e+00]
 [ 3.87477249e-01 -1.94482192e-01 -6.11378789e-01  5.76563701e-02
  -1.48216212e+00  2.51701269e-02  1.86653897e-01  1.20045558e-01
  -5.26722908e-01 -1.78429857e-01]
 [ 9.36972022e-01 -5.02292067e-02 -4.78078008e-01 -3.27753156e-01
  -1.93588996e+00  1.03497751e-01  5.65833509e-01 -8.24224591e-01
  -7.52250552e-02 -2.44655758e-01]
 [ 1.32855490e-01 -1.38087377e-01  1.80403024e-01 -2.90755808e-01
  -3.26747966e+00  3.77359599e-01  4.24232334e-01 -6.11069143e-01
  -2.01536223e-01 -1.60667992e+00]
 [ 2.54829139e-01  5.34144938e-02  5.83149910e-01 -1.91762179e-01
   3.47377777e-01  2.02172697e-01 -3.37806553e-01 -1.96350765e+00
  -1.45002589e-01 -1.99568045e+00]
 [ 6.21662773e-02 -1.71071477e-02 -1.18372507e-01  2.90873796e-01
   2.05830671e-02 -1.87738732e-01 -9.58573222e-02  6.64493665e-02
   4.10272777e-02  2.97078538e+00]
 [-1.92692541e-02  2.34790929e-02  4.21589494e-01 -5.29862940e-01
   1.71050861e-01  1.32944381e+00  2.88421005e-01 -6.61804676e-01
  -9.19997096e-01 -2.28780523e-01]
 [-2.07321402e-02 -1.51435554e-01 -7.83584826e-03 -8.38633060e-01
  -8.94297287e-02 -1.97171479e-01  2.61879057e-01  1.37240410e+00
   1.84758902e-01 -1.08028936e+00]
 [ 3.10957402e-01  3.06698024e-01 -4.49991273e-03  1.88547343e-01
  -3.10425344e-03  1.33790262e-02 -3.49563621e-02 -4.39998433e-02
   7.72845522e-02  1.71889496e+00]
 [-1.91321656e-01 -2.59254919e-03  6.72638655e-01  4.05075938e-01
  -7.32702255e-01 -9.03435349e-01  4.33518559e-01  1.43636119e+00
   3.68725002e-01  8.26981843e-01]
 [-1.19553423e+00 -4.72638249e-01  2.78595388e-01  5.66259444e-01
   1.81516886e+00 -4.46378797e-01 -8.33043277e-01  3.75437212e+00
   1.41055226e-01  1.62607169e+00]
 [ 5.77190578e-01 -2.43218452e-01  1.16055027e-01  2.54428517e-02
   1.74473238e+00 -2.56254613e-01 -4.45838302e-01  1.24503815e+00
   1.80072033e+00  1.09635341e+00]
 [ 7.58353829e-01 -1.98076203e-01 -7.96912968e-01 -4.46387380e-01
  -2.05443263e+00 -8.26299116e-02  4.39148545e-01  3.87409478e-01
  -2.07797617e-01 -1.24876106e+00]
 [ 7.62404740e-01  3.02240074e-01 -1.78495318e-01 -3.77804548e-01
  -1.19816017e+00  2.13503405e-01  5.04232407e-01 -2.73428202e+00
  -3.11893195e-01 -6.32542551e-01]
 [-8.70584011e-01  3.17707926e-01 -4.71562386e-01  4.89425868e-01
   2.31118894e+00  2.71426648e-01  6.27935886e-01 -7.55638629e-02
   1.05885589e+00  6.05583429e-01]
 [ 8.79248857e-01 -4.41452116e-02 -4.67745006e-01 -7.90094435e-02
  -1.95307362e+00  1.44739717e-01  4.97360855e-01 -9.35128212e-01
  -2.42123395e-01 -6.08435739e-03]
 [-8.88313949e-01  3.26321751e-01 -4.62807119e-01  6.46245539e-01
   2.35595322e+00  1.51448488e-01  6.07555449e-01 -1.08561344e-01
   1.09150231e+00  8.65301192e-01]
 [ 1.68708432e-02 -1.27423927e-02 -1.03726378e-02  7.27919698e-01
   3.87586743e-01 -2.04587936e-01 -2.55689472e-01 -4.26710904e-01
   2.46007174e-01  1.81209660e+00]
 [-8.27946126e-01  6.50144458e-01 -7.45262265e-01  4.56766449e-02
   1.42034709e+00  5.99233508e-01  8.32586527e-01  1.37994602e-01
  -8.45386028e-01 -9.29737568e-01]
 [ 5.57524741e-01 -3.98575902e-01  4.38755363e-01 -1.67378455e-01
  -9.88322377e-01 -3.26999962e-01 -4.51627165e-01  2.61859130e-02
   3.23381484e-01  5.58867157e-01]
 [-1.94795817e-01  4.58432036e-03  8.96192133e-01  6.03796244e-01
  -9.11209464e-01 -1.20686102e+00  5.22613704e-01  1.73101223e+00
   4.38649774e-01  1.29059958e+00]
 [ 6.60413980e-01 -2.69672692e-01  1.10229328e-01  1.31659448e-01
   1.94977641e+00 -3.16190153e-01 -5.12367904e-01  1.26764548e+00
   2.08785939e+00  1.51839232e+00]
 [-5.64568400e-01 -1.00552306e-01 -5.81477433e-02 -3.47981811e-01
  -1.28290093e+00 -1.80849284e-01  3.94527733e-01  1.01590216e+00
   6.13610327e-01 -6.40094995e-01]
 [-2.29267538e-01 -6.49624467e-02 -4.99425143e-01  2.38091890e-02
  -3.11572760e-01 -1.62262246e-01  3.45229924e-01  1.73063266e+00
   1.26575768e-01  1.45692372e+00]
 [-1.38330474e-01  1.33721024e-01 -1.72253430e-01  1.21767513e-01
   3.02740431e+00 -3.21386606e-01 -3.84881794e-01  7.23640800e-01
   2.56543875e-01  1.11343753e+00]]","[ 1.2085992   0.6191763   0.03027773 -0.7030413   0.04442953  0.31682897
  0.45503697 -0.7088065   0.54055375  0.51669097  0.44998518 -0.05251722
 -0.67468005 -1.6188157  -0.44181353  2.618797   -1.2014565   0.24797703
  1.4848098   1.0818684   0.23778981  0.33043355 -0.25055498 -0.04487602
  0.848139   -0.70892483  0.8748415   0.24540496 -0.18661837  0.39835358
  1.3698553   0.29614913  0.86417925  0.3803906   1.4566855 ]","[[-2.2408192  -1.5608388   2.0470254   2.3091006  -1.9712999  -3.2755284
  -3.2988658   1.0939455   0.9654104   2.6967883  -3.3921266  -1.0255424
  -2.558506    2.7766054   2.2752767   3.436808    1.612165    0.7045551
   1.3251706  -2.9987676   4.152212   -3.4490006   0.90252995 -3.7425818
  -2.957231    2.4563084   2.0622704  -1.2620806   0.7704465  -1.2974406
   2.2057757   2.9732008   0.76998925 -2.8357248  -3.1033597 ]]",[0.2818663]
"[[ 3.14919911e-02 -7.03999326e-02 -4.52785045e-01  3.64079535e-01
  -1.29657507e-01 -1.31936574e+00 -2.04740897e-01  7.22010076e-01
   9.52495694e-01 -5.12596183e-02]
 [-4.28840607e-01 -2.61255503e-01 -2.74170488e-01  1.04175739e-01
  -1.44449198e+00 -2.61684626e-01  4.46412683e-01 -1.65843487e-01
   2.34883368e-01  6.20721757e-01]
 [ 5.20755768e-01  5.13532937e-01 -8.22783932e-02  2.74434566e-01
  -1.43349731e+00  3.69260460e-01  4.86092299e-01 -2.25284266e+00
  -6.88483417e-01 -1.82979539e-01]
 [ 5.97868741e-01 -9.75920409e-02 -1.27614617e+00 -2.68176854e-01
   7.63156652e-01 -1.57047784e+00  5.15850544e-01 -9.01381075e-01
   1.32245827e+00 -1.59191608e+00]
 [ 4.24391538e-01  4.40220654e-01 -1.10153683e-01  8.28053728e-02
  -1.18517661e+00  4.67010081e-01  5.20328462e-01 -1.67544305e+00
  -3.28103781e-01 -5.63946545e-01]
 [-7.44762123e-01 -2.98816085e-01  1.48855209e-01  1.40316918e-01
   1.12768281e+00 -2.58159041e-01 -4.50193793e-01  2.15837073e+00
   6.22372888e-03  9.64191079e-01]
 [-4.20217097e-01  6.48640394e-02  8.90161574e-01  2.29720250e-01
  -5.33820450e-01  1.05632925e+00 -3.93530577e-01  6.03285372e-01
  -8.97486985e-01  1.15911090e+00]
 [ 4.06687468e-01  3.21090490e-01  4.19522285e-01 -2.20419511e-01
   1.65790308e+00  2.92873234e-01 -5.86472809e-01  7.92470813e-01
  -1.12356003e-02 -1.46607244e+00]
 [-8.73569727e-01  3.28834563e-01 -4.47187990e-01 -1.96027253e-02
   2.50347376e+00  4.55246836e-01  5.85422873e-01  6.47768974e-01
   1.41478896e+00 -8.33888412e-01]
 [-1.43660688e+00 -6.71871006e-01 -1.34389371e-01  2.59653717e-01
   3.58191758e-01  9.40873444e-01 -4.42077696e-01  3.02437395e-01
   1.23365331e+00  2.21802878e+00]
 [-1.14102626e+00 -5.44897199e-01 -1.07491136e-01  1.15788899e-01
   2.77134120e-01  7.70773113e-01 -3.16118866e-01  2.64326960e-01
   1.01012921e+00  1.66350484e+00]
 [ 3.87477249e-01 -1.94482192e-01 -6.11378789e-01  5.76563701e-02
  -1.48216212e+00  2.51701269e-02  1.86653897e-01  1.20045558e-01
  -5.26722908e-01 -1.78429857e-01]
 [ 9.36972022e-01 -5.02292067e-02 -4.78078008e-01 -3.27753156e-01
  -1.93588996e+00  1.03497751e-01  5.65833509e-01 -8.24224591e-01
  -7.52250552e-02 -2.44655758e-01]
 [ 1.32855490e-01 -1.38087377e-01  1.80403024e-01 -2.90755808e-01
  -3.26747966e+00  3.77359599e-01  4.24232334e-01 -6.11069143e-01
  -2.01536223e-01 -1.60667992e+00]
 [ 2.54829139e-01  5.34144938e-02  5.83149910e-01 -1.91762179e-01
   3.47377777e-01  2.02172697e-01 -3.37806553e-01 -1.96350765e+00
  -1.45002589e-01 -1.99568045e+00]
 [ 6.21662773e-02 -1.71071477e-02 -1.18372507e-01  2.90873796e-01
   2.05830671e-02 -1.87738732e-01 -9.58573222e-02  6.64493665e-02
   4.10272777e-02  2.97078538e+00]
 [-1.92692541e-02  2.34790929e-02  4.21589494e-01 -5.29862940e-01
   1.71050861e-01  1.32944381e+00  2.88421005e-01 -6.61804676e-01
  -9.19997096e-01 -2.28780523e-01]
 [-2.07321402e-02 -1.51435554e-01 -7.83584826e-03 -8.38633060e-01
  -8.94297287e-02 -1.97171479e-01  2.61879057e-01  1.37240410e+00
   1.84758902e-01 -1.08028936e+00]
 [ 3.10957402e-01  3.06698024e-01 -4.49991273e-03  1.88547343e-01
  -3.10425344e-03  1.33790262e-02 -3.49563621e-02 -4.39998433e-02
   7.72845522e-02  1.71889496e+00]
 [-1.91321656e-01 -2.59254919e-03  6.72638655e-01  4.05075938e-01
  -7.32702255e-01 -9.03435349e-01  4.33518559e-01  1.43636119e+00
   3.68725002e-01  8.26981843e-01]
 [-1.19553423e+00 -4.72638249e-01  2.78595388e-01  5.66259444e-01
   1.81516886e+00 -4.46378797e-01 -8.33043277e-01  3.75437212e+00
   1.41055226e-01  1.62607169e+00]
 [ 5.77190578e-01 -2.43218452e-01  1.16055027e-01  2.54428517e-02
   1.74473238e+00 -2.56254613e-01 -4.45838302e-01  1.24503815e+00
   1.80072033e+00  1.09635341e+00]
 [ 7.58353829e-01 -1.98076203e-01 -7.96912968e-01 -4.46387380e-01
  -2.05443263e+00 -8.26299116e-02  4.39148545e-01  3.87409478e-01
  -2.07797617e-01 -1.24876106e+00]
 [ 7.62404740e-01  3.02240074e-01 -1.78495318e-01 -3.77804548e-01
  -1.19816017e+00  2.13503405e-01  5.04232407e-01 -2.73428202e+00
  -3.11893195e-01 -6.32542551e-01]
 [-8.70584011e-01  3.17707926e-01 -4.71562386e-01  4.89425868e-01
   2.31118894e+00  2.71426648e-01  6.27935886e-01 -7.55638629e-02
   1.05885589e+00  6.05583429e-01]
 [ 8.79248857e-01 -4.41452116e-02 -4.67745006e-01 -7.90094435e-02
  -1.95307362e+00  1.44739717e-01  4.97360855e-01 -9.35128212e-01
  -2.42123395e-01 -6.08435739e-03]
 [-8.88313949e-01  3.26321751e-01 -4.62807119e-01  6.46245539e-01
   2.35595322e+00  1.51448488e-01  6.07555449e-01 -1.08561344e-01
   1.09150231e+00  8.65301192e-01]
 [ 1.68708432e-02 -1.27423927e-02 -1.03726378e-02  7.27919698e-01
   3.87586743e-01 -2.04587936e-01 -2.55689472e-01 -4.26710904e-01
   2.46007174e-01  1.81209660e+00]
 [-8.27946126e-01  6.50144458e-01 -7.45262265e-01  4.56766449e-02
   1.42034709e+00  5.99233508e-01  8.32586527e-01  1.37994602e-01
  -8.45386028e-01 -9.29737568e-01]
 [ 5.57524741e-01 -3.98575902e-01  4.38755363e-01 -1.67378455e-01
  -9.88322377e-01 -3.26999962e-01 -4.51627165e-01  2.61859130e-02
   3.23381484e-01  5.58867157e-01]
 [-1.94795817e-01  4.58432036e-03  8.96192133e-01  6.03796244e-01
  -9.11209464e-01 -1.20686102e+00  5.22613704e-01  1.73101223e+00
   4.38649774e-01  1.29059958e+00]
 [ 6.60413980e-01 -2.69672692e-01  1.10229328e-01  1.31659448e-01
   1.94977641e+00 -3.16190153e-01 -5.12367904e-01  1.26764548e+00
   2.08785939e+00  1.51839232e+00]
 [-5.64568400e-01 -1.00552306e-01 -5.81477433e-02 -3.47981811e-01
  -1.28290093e+00 -1.80849284e-01  3.94527733e-01  1.01590216e+00
   6.13610327e-01 -6.40094995e-01]
 [-2.29267538e-01 -6.49624467e-02 -4.99425143e-01  2.38091890e-02
  -3.11572760e-01 -1.62262246e-01  3.45229924e-01  1.73063266e+00
   1.26575768e-01  1.45692372e+00]
 [-1.38330474e-01  1.33721024e-01 -1.72253430e-01  1.21767513e-01
   3.02740431e+00 -3.21386606e-01 -3.84881794e-01  7.23640800e-01
   2.56543875e-01  1.11343753e+00]]","[ 1.2085992   0.6191763   0.03027773 -0.7030413   0.04442953  0.31682897
  0.45503697 -0.7088065   0.54055375  0.51669097  0.44998518 -0.05251722
 -0.67468005 -1.6188157  -0.44181353  2.618797   -1.2014565   0.24797703
  1.4848098   1.0818684   0.23778981  0.33043355 -0.25055498 -0.04487602
  0.848139   -0.70892483  0.8748415   0.24540496 -0.18661837  0.39835358
  1.3698553   0.29614913  0.86417925  0.3803906   1.4566855 ]","[[-2.2408192  -1.5608388   2.0470254   2.3091006  -1.9712999  -3.2755284
  -3.2988658   1.0939455   0.9654104   2.6967883  -3.3921266  -1.0255424
  -2.558506    2.7766054   2.2752767   3.436808    1.612165    0.7045551
   1.3251706  -2.9987676   4.152212   -3.4490006   0.90252995 -3.7425818
  -2.957231    2.4563084   2.0622704  -1.2620806   0.7704465  -1.2974406
   2.2057757   2.9732008   0.76998925 -2.8357248  -3.1033597 ]]",[0.2818663]
"[[ 3.14919911e-02 -7.03999326e-02 -4.52785045e-01  3.64079535e-01
  -1.29657507e-01 -1.31936574e+00 -2.04740897e-01  7.22010076e-01
   9.52495694e-01 -5.12596183e-02]
 [-4.28840607e-01 -2.61255503e-01 -2.74170488e-01  1.04175739e-01
  -1.44449198e+00 -2.61684626e-01  4.46412683e-01 -1.65843487e-01
   2.34883368e-01  6.20721757e-01]
 [ 5.20755768e-01  5.13532937e-01 -8.22783932e-02  2.74434566e-01
  -1.43349731e+00  3.69260460e-01  4.86092299e-01 -2.25284266e+00
  -6.88483417e-01 -1.82979539e-01]
 [ 5.97868741e-01 -9.75920409e-02 -1.27614617e+00 -2.68176854e-01
   7.63156652e-01 -1.57047784e+00  5.15850544e-01 -9.01381075e-01
   1.32245827e+00 -1.59191608e+00]
 [ 4.24391538e-01  4.40220654e-01 -1.10153683e-01  8.28053728e-02
  -1.18517661e+00  4.67010081e-01  5.20328462e-01 -1.67544305e+00
  -3.28103781e-01 -5.63946545e-01]
 [-7.44762123e-01 -2.98816085e-01  1.48855209e-01  1.40316918e-01
   1.12768281e+00 -2.58159041e-01 -4.50193793e-01  2.15837073e+00
   6.22372888e-03  9.64191079e-01]
 [-4.20217097e-01  6.48640394e-02  8.90161574e-01  2.29720250e-01
  -5.33820450e-01  1.05632925e+00 -3.93530577e-01  6.03285372e-01
  -8.97486985e-01  1.15911090e+00]
 [ 4.06687468e-01  3.21090490e-01  4.19522285e-01 -2.20419511e-01
   1.65790308e+00  2.92873234e-01 -5.86472809e-01  7.92470813e-01
  -1.12356003e-02 -1.46607244e+00]
 [-8.73569727e-01  3.28834563e-01 -4.47187990e-01 -1.96027253e-02
   2.50347376e+00  4.55246836e-01  5.85422873e-01  6.47768974e-01
   1.41478896e+00 -8.33888412e-01]
 [-1.43660688e+00 -6.71871006e-01 -1.34389371e-01  2.59653717e-01
   3.58191758e-01  9.40873444e-01 -4.42077696e-01  3.02437395e-01
   1.23365331e+00  2.21802878e+00]
 [-1.14102626e+00 -5.44897199e-01 -1.07491136e-01  1.15788899e-01
   2.77134120e-01  7.70773113e-01 -3.16118866e-01  2.64326960e-01
   1.01012921e+00  1.66350484e+00]
 [ 3.87477249e-01 -1.94482192e-01 -6.11378789e-01  5.76563701e-02
  -1.48216212e+00  2.51701269e-02  1.86653897e-01  1.20045558e-01
  -5.26722908e-01 -1.78429857e-01]
 [ 9.36972022e-01 -5.02292067e-02 -4.78078008e-01 -3.27753156e-01
  -1.93588996e+00  1.03497751e-01  5.65833509e-01 -8.24224591e-01
  -7.52250552e-02 -2.44655758e-01]
 [ 1.32855490e-01 -1.38087377e-01  1.80403024e-01 -2.90755808e-01
  -3.26747966e+00  3.77359599e-01  4.24232334e-01 -6.11069143e-01
  -2.01536223e-01 -1.60667992e+00]
 [ 2.54829139e-01  5.34144938e-02  5.83149910e-01 -1.91762179e-01
   3.47377777e-01  2.02172697e-01 -3.37806553e-01 -1.96350765e+00
  -1.45002589e-01 -1.99568045e+00]
 [ 6.21662773e-02 -1.71071477e-02 -1.18372507e-01  2.90873796e-01
   2.05830671e-02 -1.87738732e-01 -9.58573222e-02  6.64493665e-02
   4.10272777e-02  2.97078538e+00]
 [-1.92692541e-02  2.34790929e-02  4.21589494e-01 -5.29862940e-01
   1.71050861e-01  1.32944381e+00  2.88421005e-01 -6.61804676e-01
  -9.19997096e-01 -2.28780523e-01]
 [-2.07321402e-02 -1.51435554e-01 -7.83584826e-03 -8.38633060e-01
  -8.94297287e-02 -1.97171479e-01  2.61879057e-01  1.37240410e+00
   1.84758902e-01 -1.08028936e+00]
 [ 3.10957402e-01  3.06698024e-01 -4.49991273e-03  1.88547343e-01
  -3.10425344e-03  1.33790262e-02 -3.49563621e-02 -4.39998433e-02
   7.72845522e-02  1.71889496e+00]
 [-1.91321656e-01 -2.59254919e-03  6.72638655e-01  4.05075938e-01
  -7.32702255e-01 -9.03435349e-01  4.33518559e-01  1.43636119e+00
   3.68725002e-01  8.26981843e-01]
 [-1.19553423e+00 -4.72638249e-01  2.78595388e-01  5.66259444e-01
   1.81516886e+00 -4.46378797e-01 -8.33043277e-01  3.75437212e+00
   1.41055226e-01  1.62607169e+00]
 [ 5.77190578e-01 -2.43218452e-01  1.16055027e-01  2.54428517e-02
   1.74473238e+00 -2.56254613e-01 -4.45838302e-01  1.24503815e+00
   1.80072033e+00  1.09635341e+00]
 [ 7.58353829e-01 -1.98076203e-01 -7.96912968e-01 -4.46387380e-01
  -2.05443263e+00 -8.26299116e-02  4.39148545e-01  3.87409478e-01
  -2.07797617e-01 -1.24876106e+00]
 [ 7.62404740e-01  3.02240074e-01 -1.78495318e-01 -3.77804548e-01
  -1.19816017e+00  2.13503405e-01  5.04232407e-01 -2.73428202e+00
  -3.11893195e-01 -6.32542551e-01]
 [-8.70584011e-01  3.17707926e-01 -4.71562386e-01  4.89425868e-01
   2.31118894e+00  2.71426648e-01  6.27935886e-01 -7.55638629e-02
   1.05885589e+00  6.05583429e-01]
 [ 8.79248857e-01 -4.41452116e-02 -4.67745006e-01 -7.90094435e-02
  -1.95307362e+00  1.44739717e-01  4.97360855e-01 -9.35128212e-01
  -2.42123395e-01 -6.08435739e-03]
 [-8.88313949e-01  3.26321751e-01 -4.62807119e-01  6.46245539e-01
   2.35595322e+00  1.51448488e-01  6.07555449e-01 -1.08561344e-01
   1.09150231e+00  8.65301192e-01]
 [ 1.68708432e-02 -1.27423927e-02 -1.03726378e-02  7.27919698e-01
   3.87586743e-01 -2.04587936e-01 -2.55689472e-01 -4.26710904e-01
   2.46007174e-01  1.81209660e+00]
 [-8.27946126e-01  6.50144458e-01 -7.45262265e-01  4.56766449e-02
   1.42034709e+00  5.99233508e-01  8.32586527e-01  1.37994602e-01
  -8.45386028e-01 -9.29737568e-01]
 [ 5.57524741e-01 -3.98575902e-01  4.38755363e-01 -1.67378455e-01
  -9.88322377e-01 -3.26999962e-01 -4.51627165e-01  2.61859130e-02
   3.23381484e-01  5.58867157e-01]
 [-1.94795817e-01  4.58432036e-03  8.96192133e-01  6.03796244e-01
  -9.11209464e-01 -1.20686102e+00  5.22613704e-01  1.73101223e+00
   4.38649774e-01  1.29059958e+00]
 [ 6.60413980e-01 -2.69672692e-01  1.10229328e-01  1.31659448e-01
   1.94977641e+00 -3.16190153e-01 -5.12367904e-01  1.26764548e+00
   2.08785939e+00  1.51839232e+00]
 [-5.64568400e-01 -1.00552306e-01 -5.81477433e-02 -3.47981811e-01
  -1.28290093e+00 -1.80849284e-01  3.94527733e-01  1.01590216e+00
   6.13610327e-01 -6.40094995e-01]
 [-2.29267538e-01 -6.49624467e-02 -4.99425143e-01  2.38091890e-02
  -3.11572760e-01 -1.62262246e-01  3.45229924e-01  1.73063266e+00
   1.26575768e-01  1.45692372e+00]
 [-1.38330474e-01  1.33721024e-01 -1.72253430e-01  1.21767513e-01
   3.02740431e+00 -3.21386606e-01 -3.84881794e-01  7.23640800e-01
   2.56543875e-01  1.11343753e+00]]","[ 1.2085992   0.6191763   0.03027773 -0.7030413   0.04442953  0.31682897
  0.45503697 -0.7088065   0.54055375  0.51669097  0.44998518 -0.05251722
 -0.67468005 -1.6188157  -0.44181353  2.618797   -1.2014565   0.24797703
  1.4848098   1.0818684   0.23778981  0.33043355 -0.25055498 -0.04487602
  0.848139   -0.70892483  0.8748415   0.24540496 -0.18661837  0.39835358
  1.3698553   0.29614913  0.86417925  0.3803906   1.4566855 ]","[[-2.2408192  -1.5608388   2.0470254   2.3091006  -1.9712999  -3.2755284
  -3.2988658   1.0939455   0.9654104   2.6967883  -3.3921266  -1.0255424
  -2.558506    2.7766054   2.2752767   3.436808    1.612165    0.7045551
   1.3251706  -2.9987676   4.152212   -3.4490006   0.90252995 -3.7425818
  -2.957231    2.4563084   2.0622704  -1.2620806   0.7704465  -1.2974406
   2.2057757   2.9732008   0.76998925 -2.8357248  -3.1033597 ]]",[0.2818663]
"[[ 3.14919911e-02 -7.03999326e-02 -4.52785045e-01  3.64079535e-01
  -1.29657507e-01 -1.31936574e+00 -2.04740897e-01  7.22010076e-01
   9.52495694e-01 -5.12596183e-02]
 [-4.28840607e-01 -2.61255503e-01 -2.74170488e-01  1.04175739e-01
  -1.44449198e+00 -2.61684626e-01  4.46412683e-01 -1.65843487e-01
   2.34883368e-01  6.20721757e-01]
 [ 5.20755768e-01  5.13532937e-01 -8.22783932e-02  2.74434566e-01
  -1.43349731e+00  3.69260460e-01  4.86092299e-01 -2.25284266e+00
  -6.88483417e-01 -1.82979539e-01]
 [ 5.97868741e-01 -9.75920409e-02 -1.27614617e+00 -2.68176854e-01
   7.63156652e-01 -1.57047784e+00  5.15850544e-01 -9.01381075e-01
   1.32245827e+00 -1.59191608e+00]
 [ 4.24391538e-01  4.40220654e-01 -1.10153683e-01  8.28053728e-02
  -1.18517661e+00  4.67010081e-01  5.20328462e-01 -1.67544305e+00
  -3.28103781e-01 -5.63946545e-01]
 [-7.44762123e-01 -2.98816085e-01  1.48855209e-01  1.40316918e-01
   1.12768281e+00 -2.58159041e-01 -4.50193793e-01  2.15837073e+00
   6.22372888e-03  9.64191079e-01]
 [-4.20217097e-01  6.48640394e-02  8.90161574e-01  2.29720250e-01
  -5.33820450e-01  1.05632925e+00 -3.93530577e-01  6.03285372e-01
  -8.97486985e-01  1.15911090e+00]
 [ 4.06687468e-01  3.21090490e-01  4.19522285e-01 -2.20419511e-01
   1.65790308e+00  2.92873234e-01 -5.86472809e-01  7.92470813e-01
  -1.12356003e-02 -1.46607244e+00]
 [-8.73569727e-01  3.28834563e-01 -4.47187990e-01 -1.96027253e-02
   2.50347376e+00  4.55246836e-01  5.85422873e-01  6.47768974e-01
   1.41478896e+00 -8.33888412e-01]
 [-1.43660688e+00 -6.71871006e-01 -1.34389371e-01  2.59653717e-01
   3.58191758e-01  9.40873444e-01 -4.42077696e-01  3.02437395e-01
   1.23365331e+00  2.21802878e+00]
 [-1.14102626e+00 -5.44897199e-01 -1.07491136e-01  1.15788899e-01
   2.77134120e-01  7.70773113e-01 -3.16118866e-01  2.64326960e-01
   1.01012921e+00  1.66350484e+00]
 [ 3.87477249e-01 -1.94482192e-01 -6.11378789e-01  5.76563701e-02
  -1.48216212e+00  2.51701269e-02  1.86653897e-01  1.20045558e-01
  -5.26722908e-01 -1.78429857e-01]
 [ 9.36972022e-01 -5.02292067e-02 -4.78078008e-01 -3.27753156e-01
  -1.93588996e+00  1.03497751e-01  5.65833509e-01 -8.24224591e-01
  -7.52250552e-02 -2.44655758e-01]
 [ 1.32855490e-01 -1.38087377e-01  1.80403024e-01 -2.90755808e-01
  -3.26747966e+00  3.77359599e-01  4.24232334e-01 -6.11069143e-01
  -2.01536223e-01 -1.60667992e+00]
 [ 2.54829139e-01  5.34144938e-02  5.83149910e-01 -1.91762179e-01
   3.47377777e-01  2.02172697e-01 -3.37806553e-01 -1.96350765e+00
  -1.45002589e-01 -1.99568045e+00]
 [ 6.21662773e-02 -1.71071477e-02 -1.18372507e-01  2.90873796e-01
   2.05830671e-02 -1.87738732e-01 -9.58573222e-02  6.64493665e-02
   4.10272777e-02  2.97078538e+00]
 [-1.92692541e-02  2.34790929e-02  4.21589494e-01 -5.29862940e-01
   1.71050861e-01  1.32944381e+00  2.88421005e-01 -6.61804676e-01
  -9.19997096e-01 -2.28780523e-01]
 [-2.07321402e-02 -1.51435554e-01 -7.83584826e-03 -8.38633060e-01
  -8.94297287e-02 -1.97171479e-01  2.61879057e-01  1.37240410e+00
   1.84758902e-01 -1.08028936e+00]
 [ 3.10957402e-01  3.06698024e-01 -4.49991273e-03  1.88547343e-01
  -3.10425344e-03  1.33790262e-02 -3.49563621e-02 -4.39998433e-02
   7.72845522e-02  1.71889496e+00]
 [-1.91321656e-01 -2.59254919e-03  6.72638655e-01  4.05075938e-01
  -7.32702255e-01 -9.03435349e-01  4.33518559e-01  1.43636119e+00
   3.68725002e-01  8.26981843e-01]
 [-1.19553423e+00 -4.72638249e-01  2.78595388e-01  5.66259444e-01
   1.81516886e+00 -4.46378797e-01 -8.33043277e-01  3.75437212e+00
   1.41055226e-01  1.62607169e+00]
 [ 5.77190578e-01 -2.43218452e-01  1.16055027e-01  2.54428517e-02
   1.74473238e+00 -2.56254613e-01 -4.45838302e-01  1.24503815e+00
   1.80072033e+00  1.09635341e+00]
 [ 7.58353829e-01 -1.98076203e-01 -7.96912968e-01 -4.46387380e-01
  -2.05443263e+00 -8.26299116e-02  4.39148545e-01  3.87409478e-01
  -2.07797617e-01 -1.24876106e+00]
 [ 7.62404740e-01  3.02240074e-01 -1.78495318e-01 -3.77804548e-01
  -1.19816017e+00  2.13503405e-01  5.04232407e-01 -2.73428202e+00
  -3.11893195e-01 -6.32542551e-01]
 [-8.70584011e-01  3.17707926e-01 -4.71562386e-01  4.89425868e-01
   2.31118894e+00  2.71426648e-01  6.27935886e-01 -7.55638629e-02
   1.05885589e+00  6.05583429e-01]
 [ 8.79248857e-01 -4.41452116e-02 -4.67745006e-01 -7.90094435e-02
  -1.95307362e+00  1.44739717e-01  4.97360855e-01 -9.35128212e-01
  -2.42123395e-01 -6.08435739e-03]
 [-8.88313949e-01  3.26321751e-01 -4.62807119e-01  6.46245539e-01
   2.35595322e+00  1.51448488e-01  6.07555449e-01 -1.08561344e-01
   1.09150231e+00  8.65301192e-01]
 [ 1.68708432e-02 -1.27423927e-02 -1.03726378e-02  7.27919698e-01
   3.87586743e-01 -2.04587936e-01 -2.55689472e-01 -4.26710904e-01
   2.46007174e-01  1.81209660e+00]
 [-8.27946126e-01  6.50144458e-01 -7.45262265e-01  4.56766449e-02
   1.42034709e+00  5.99233508e-01  8.32586527e-01  1.37994602e-01
  -8.45386028e-01 -9.29737568e-01]
 [ 5.57524741e-01 -3.98575902e-01  4.38755363e-01 -1.67378455e-01
  -9.88322377e-01 -3.26999962e-01 -4.51627165e-01  2.61859130e-02
   3.23381484e-01  5.58867157e-01]
 [-1.94795817e-01  4.58432036e-03  8.96192133e-01  6.03796244e-01
  -9.11209464e-01 -1.20686102e+00  5.22613704e-01  1.73101223e+00
   4.38649774e-01  1.29059958e+00]
 [ 6.60413980e-01 -2.69672692e-01  1.10229328e-01  1.31659448e-01
   1.94977641e+00 -3.16190153e-01 -5.12367904e-01  1.26764548e+00
   2.08785939e+00  1.51839232e+00]
 [-5.64568400e-01 -1.00552306e-01 -5.81477433e-02 -3.47981811e-01
  -1.28290093e+00 -1.80849284e-01  3.94527733e-01  1.01590216e+00
   6.13610327e-01 -6.40094995e-01]
 [-2.29267538e-01 -6.49624467e-02 -4.99425143e-01  2.38091890e-02
  -3.11572760e-01 -1.62262246e-01  3.45229924e-01  1.73063266e+00
   1.26575768e-01  1.45692372e+00]
 [-1.38330474e-01  1.33721024e-01 -1.72253430e-01  1.21767513e-01
   3.02740431e+00 -3.21386606e-01 -3.84881794e-01  7.23640800e-01
   2.56543875e-01  1.11343753e+00]]","[ 1.2085992   0.6191763   0.03027773 -0.7030413   0.04442953  0.31682897
  0.45503697 -0.7088065   0.54055375  0.51669097  0.44998518 -0.05251722
 -0.67468005 -1.6188157  -0.44181353  2.618797   -1.2014565   0.24797703
  1.4848098   1.0818684   0.23778981  0.33043355 -0.25055498 -0.04487602
  0.848139   -0.70892483  0.8748415   0.24540496 -0.18661837  0.39835358
  1.3698553   0.29614913  0.86417925  0.3803906   1.4566855 ]","[[-2.2408192  -1.5608388   2.0470254   2.3091006  -1.9712999  -3.2755284
  -3.2988658   1.0939455   0.9654104   2.6967883  -3.3921266  -1.0255424
  -2.558506    2.7766054   2.2752767   3.436808    1.612165    0.7045551
   1.3251706  -2.9987676   4.152212   -3.4490006   0.90252995 -3.7425818
  -2.957231    2.4563084   2.0622704  -1.2620806   0.7704465  -1.2974406
   2.2057757   2.9732008   0.76998925 -2.8357248  -3.1033597 ]]",[0.2818663]
"[[ 3.14919911e-02 -7.03999326e-02 -4.52785045e-01  3.64079535e-01
  -1.29657507e-01 -1.31936574e+00 -2.04740897e-01  7.22010076e-01
   9.52495694e-01 -5.12596183e-02]
 [-4.28840607e-01 -2.61255503e-01 -2.74170488e-01  1.04175739e-01
  -1.44449198e+00 -2.61684626e-01  4.46412683e-01 -1.65843487e-01
   2.34883368e-01  6.20721757e-01]
 [ 5.20755768e-01  5.13532937e-01 -8.22783932e-02  2.74434566e-01
  -1.43349731e+00  3.69260460e-01  4.86092299e-01 -2.25284266e+00
  -6.88483417e-01 -1.82979539e-01]
 [ 5.97868741e-01 -9.75920409e-02 -1.27614617e+00 -2.68176854e-01
   7.63156652e-01 -1.57047784e+00  5.15850544e-01 -9.01381075e-01
   1.32245827e+00 -1.59191608e+00]
 [ 4.24391538e-01  4.40220654e-01 -1.10153683e-01  8.28053728e-02
  -1.18517661e+00  4.67010081e-01  5.20328462e-01 -1.67544305e+00
  -3.28103781e-01 -5.63946545e-01]
 [-7.44762123e-01 -2.98816085e-01  1.48855209e-01  1.40316918e-01
   1.12768281e+00 -2.58159041e-01 -4.50193793e-01  2.15837073e+00
   6.22372888e-03  9.64191079e-01]
 [-4.20217097e-01  6.48640394e-02  8.90161574e-01  2.29720250e-01
  -5.33820450e-01  1.05632925e+00 -3.93530577e-01  6.03285372e-01
  -8.97486985e-01  1.15911090e+00]
 [ 4.06687468e-01  3.21090490e-01  4.19522285e-01 -2.20419511e-01
   1.65790308e+00  2.92873234e-01 -5.86472809e-01  7.92470813e-01
  -1.12356003e-02 -1.46607244e+00]
 [-8.73569727e-01  3.28834563e-01 -4.47187990e-01 -1.96027253e-02
   2.50347376e+00  4.55246836e-01  5.85422873e-01  6.47768974e-01
   1.41478896e+00 -8.33888412e-01]
 [-1.43660688e+00 -6.71871006e-01 -1.34389371e-01  2.59653717e-01
   3.58191758e-01  9.40873444e-01 -4.42077696e-01  3.02437395e-01
   1.23365331e+00  2.21802878e+00]
 [-1.14102626e+00 -5.44897199e-01 -1.07491136e-01  1.15788899e-01
   2.77134120e-01  7.70773113e-01 -3.16118866e-01  2.64326960e-01
   1.01012921e+00  1.66350484e+00]
 [ 3.87477249e-01 -1.94482192e-01 -6.11378789e-01  5.76563701e-02
  -1.48216212e+00  2.51701269e-02  1.86653897e-01  1.20045558e-01
  -5.26722908e-01 -1.78429857e-01]
 [ 9.36972022e-01 -5.02292067e-02 -4.78078008e-01 -3.27753156e-01
  -1.93588996e+00  1.03497751e-01  5.65833509e-01 -8.24224591e-01
  -7.52250552e-02 -2.44655758e-01]
 [ 1.32855490e-01 -1.38087377e-01  1.80403024e-01 -2.90755808e-01
  -3.26747966e+00  3.77359599e-01  4.24232334e-01 -6.11069143e-01
  -2.01536223e-01 -1.60667992e+00]
 [ 2.54829139e-01  5.34144938e-02  5.83149910e-01 -1.91762179e-01
   3.47377777e-01  2.02172697e-01 -3.37806553e-01 -1.96350765e+00
  -1.45002589e-01 -1.99568045e+00]
 [ 6.21662773e-02 -1.71071477e-02 -1.18372507e-01  2.90873796e-01
   2.05830671e-02 -1.87738732e-01 -9.58573222e-02  6.64493665e-02
   4.10272777e-02  2.97078538e+00]
 [-1.92692541e-02  2.34790929e-02  4.21589494e-01 -5.29862940e-01
   1.71050861e-01  1.32944381e+00  2.88421005e-01 -6.61804676e-01
  -9.19997096e-01 -2.28780523e-01]
 [-2.07321402e-02 -1.51435554e-01 -7.83584826e-03 -8.38633060e-01
  -8.94297287e-02 -1.97171479e-01  2.61879057e-01  1.37240410e+00
   1.84758902e-01 -1.08028936e+00]
 [ 3.10957402e-01  3.06698024e-01 -4.49991273e-03  1.88547343e-01
  -3.10425344e-03  1.33790262e-02 -3.49563621e-02 -4.39998433e-02
   7.72845522e-02  1.71889496e+00]
 [-1.91321656e-01 -2.59254919e-03  6.72638655e-01  4.05075938e-01
  -7.32702255e-01 -9.03435349e-01  4.33518559e-01  1.43636119e+00
   3.68725002e-01  8.26981843e-01]
 [-1.19553423e+00 -4.72638249e-01  2.78595388e-01  5.66259444e-01
   1.81516886e+00 -4.46378797e-01 -8.33043277e-01  3.75437212e+00
   1.41055226e-01  1.62607169e+00]
 [ 5.77190578e-01 -2.43218452e-01  1.16055027e-01  2.54428517e-02
   1.74473238e+00 -2.56254613e-01 -4.45838302e-01  1.24503815e+00
   1.80072033e+00  1.09635341e+00]
 [ 7.58353829e-01 -1.98076203e-01 -7.96912968e-01 -4.46387380e-01
  -2.05443263e+00 -8.26299116e-02  4.39148545e-01  3.87409478e-01
  -2.07797617e-01 -1.24876106e+00]
 [ 7.62404740e-01  3.02240074e-01 -1.78495318e-01 -3.77804548e-01
  -1.19816017e+00  2.13503405e-01  5.04232407e-01 -2.73428202e+00
  -3.11893195e-01 -6.32542551e-01]
 [-8.70584011e-01  3.17707926e-01 -4.71562386e-01  4.89425868e-01
   2.31118894e+00  2.71426648e-01  6.27935886e-01 -7.55638629e-02
   1.05885589e+00  6.05583429e-01]
 [ 8.79248857e-01 -4.41452116e-02 -4.67745006e-01 -7.90094435e-02
  -1.95307362e+00  1.44739717e-01  4.97360855e-01 -9.35128212e-01
  -2.42123395e-01 -6.08435739e-03]
 [-8.88313949e-01  3.26321751e-01 -4.62807119e-01  6.46245539e-01
   2.35595322e+00  1.51448488e-01  6.07555449e-01 -1.08561344e-01
   1.09150231e+00  8.65301192e-01]
 [ 1.68708432e-02 -1.27423927e-02 -1.03726378e-02  7.27919698e-01
   3.87586743e-01 -2.04587936e-01 -2.55689472e-01 -4.26710904e-01
   2.46007174e-01  1.81209660e+00]
 [-8.27946126e-01  6.50144458e-01 -7.45262265e-01  4.56766449e-02
   1.42034709e+00  5.99233508e-01  8.32586527e-01  1.37994602e-01
  -8.45386028e-01 -9.29737568e-01]
 [ 5.57524741e-01 -3.98575902e-01  4.38755363e-01 -1.67378455e-01
  -9.88322377e-01 -3.26999962e-01 -4.51627165e-01  2.61859130e-02
   3.23381484e-01  5.58867157e-01]
 [-1.94795817e-01  4.58432036e-03  8.96192133e-01  6.03796244e-01
  -9.11209464e-01 -1.20686102e+00  5.22613704e-01  1.73101223e+00
   4.38649774e-01  1.29059958e+00]
 [ 6.60413980e-01 -2.69672692e-01  1.10229328e-01  1.31659448e-01
   1.94977641e+00 -3.16190153e-01 -5.12367904e-01  1.26764548e+00
   2.08785939e+00  1.51839232e+00]
 [-5.64568400e-01 -1.00552306e-01 -5.81477433e-02 -3.47981811e-01
  -1.28290093e+00 -1.80849284e-01  3.94527733e-01  1.01590216e+00
   6.13610327e-01 -6.40094995e-01]
 [-2.29267538e-01 -6.49624467e-02 -4.99425143e-01  2.38091890e-02
  -3.11572760e-01 -1.62262246e-01  3.45229924e-01  1.73063266e+00
   1.26575768e-01  1.45692372e+00]
 [-1.38330474e-01  1.33721024e-01 -1.72253430e-01  1.21767513e-01
   3.02740431e+00 -3.21386606e-01 -3.84881794e-01  7.23640800e-01
   2.56543875e-01  1.11343753e+00]]","[ 1.2085992   0.6191763   0.03027773 -0.7030413   0.04442953  0.31682897
  0.45503697 -0.7088065   0.54055375  0.51669097  0.44998518 -0.05251722
 -0.67468005 -1.6188157  -0.44181353  2.618797   -1.2014565   0.24797703
  1.4848098   1.0818684   0.23778981  0.33043355 -0.25055498 -0.04487602
  0.848139   -0.70892483  0.8748415   0.24540496 -0.18661837  0.39835358
  1.3698553   0.29614913  0.86417925  0.3803906   1.4566855 ]","[[-2.2408192  -1.5608388   2.0470254   2.3091006  -1.9712999  -3.2755284
  -3.2988658   1.0939455   0.9654104   2.6967883  -3.3921266  -1.0255424
  -2.558506    2.7766054   2.2752767   3.436808    1.612165    0.7045551
   1.3251706  -2.9987676   4.152212   -3.4490006   0.90252995 -3.7425818
  -2.957231    2.4563084   2.0622704  -1.2620806   0.7704465  -1.2974406
   2.2057757   2.9732008   0.76998925 -2.8357248  -3.1033597 ]]",[0.2818663]
"[[ 3.14919911e-02 -7.03999326e-02 -4.52785045e-01  3.64079535e-01
  -1.29657507e-01 -1.31936574e+00 -2.04740897e-01  7.22010076e-01
   9.52495694e-01 -5.12596183e-02]
 [-4.28840607e-01 -2.61255503e-01 -2.74170488e-01  1.04175739e-01
  -1.44449198e+00 -2.61684626e-01  4.46412683e-01 -1.65843487e-01
   2.34883368e-01  6.20721757e-01]
 [ 5.20755768e-01  5.13532937e-01 -8.22783932e-02  2.74434566e-01
  -1.43349731e+00  3.69260460e-01  4.86092299e-01 -2.25284266e+00
  -6.88483417e-01 -1.82979539e-01]
 [ 5.97868741e-01 -9.75920409e-02 -1.27614617e+00 -2.68176854e-01
   7.63156652e-01 -1.57047784e+00  5.15850544e-01 -9.01381075e-01
   1.32245827e+00 -1.59191608e+00]
 [ 4.24391538e-01  4.40220654e-01 -1.10153683e-01  8.28053728e-02
  -1.18517661e+00  4.67010081e-01  5.20328462e-01 -1.67544305e+00
  -3.28103781e-01 -5.63946545e-01]
 [-7.44762123e-01 -2.98816085e-01  1.48855209e-01  1.40316918e-01
   1.12768281e+00 -2.58159041e-01 -4.50193793e-01  2.15837073e+00
   6.22372888e-03  9.64191079e-01]
 [-4.20217097e-01  6.48640394e-02  8.90161574e-01  2.29720250e-01
  -5.33820450e-01  1.05632925e+00 -3.93530577e-01  6.03285372e-01
  -8.97486985e-01  1.15911090e+00]
 [ 4.06687468e-01  3.21090490e-01  4.19522285e-01 -2.20419511e-01
   1.65790308e+00  2.92873234e-01 -5.86472809e-01  7.92470813e-01
  -1.12356003e-02 -1.46607244e+00]
 [-8.73569727e-01  3.28834563e-01 -4.47187990e-01 -1.96027253e-02
   2.50347376e+00  4.55246836e-01  5.85422873e-01  6.47768974e-01
   1.41478896e+00 -8.33888412e-01]
 [-1.43660688e+00 -6.71871006e-01 -1.34389371e-01  2.59653717e-01
   3.58191758e-01  9.40873444e-01 -4.42077696e-01  3.02437395e-01
   1.23365331e+00  2.21802878e+00]
 [-1.14102626e+00 -5.44897199e-01 -1.07491136e-01  1.15788899e-01
   2.77134120e-01  7.70773113e-01 -3.16118866e-01  2.64326960e-01
   1.01012921e+00  1.66350484e+00]
 [ 3.87477249e-01 -1.94482192e-01 -6.11378789e-01  5.76563701e-02
  -1.48216212e+00  2.51701269e-02  1.86653897e-01  1.20045558e-01
  -5.26722908e-01 -1.78429857e-01]
 [ 9.36972022e-01 -5.02292067e-02 -4.78078008e-01 -3.27753156e-01
  -1.93588996e+00  1.03497751e-01  5.65833509e-01 -8.24224591e-01
  -7.52250552e-02 -2.44655758e-01]
 [ 1.32855490e-01 -1.38087377e-01  1.80403024e-01 -2.90755808e-01
  -3.26747966e+00  3.77359599e-01  4.24232334e-01 -6.11069143e-01
  -2.01536223e-01 -1.60667992e+00]
 [ 2.54829139e-01  5.34144938e-02  5.83149910e-01 -1.91762179e-01
   3.47377777e-01  2.02172697e-01 -3.37806553e-01 -1.96350765e+00
  -1.45002589e-01 -1.99568045e+00]
 [ 6.21662773e-02 -1.71071477e-02 -1.18372507e-01  2.90873796e-01
   2.05830671e-02 -1.87738732e-01 -9.58573222e-02  6.64493665e-02
   4.10272777e-02  2.97078538e+00]
 [-1.92692541e-02  2.34790929e-02  4.21589494e-01 -5.29862940e-01
   1.71050861e-01  1.32944381e+00  2.88421005e-01 -6.61804676e-01
  -9.19997096e-01 -2.28780523e-01]
 [-2.07321402e-02 -1.51435554e-01 -7.83584826e-03 -8.38633060e-01
  -8.94297287e-02 -1.97171479e-01  2.61879057e-01  1.37240410e+00
   1.84758902e-01 -1.08028936e+00]
 [ 3.10957402e-01  3.06698024e-01 -4.49991273e-03  1.88547343e-01
  -3.10425344e-03  1.33790262e-02 -3.49563621e-02 -4.39998433e-02
   7.72845522e-02  1.71889496e+00]
 [-1.91321656e-01 -2.59254919e-03  6.72638655e-01  4.05075938e-01
  -7.32702255e-01 -9.03435349e-01  4.33518559e-01  1.43636119e+00
   3.68725002e-01  8.26981843e-01]
 [-1.19553423e+00 -4.72638249e-01  2.78595388e-01  5.66259444e-01
   1.81516886e+00 -4.46378797e-01 -8.33043277e-01  3.75437212e+00
   1.41055226e-01  1.62607169e+00]
 [ 5.77190578e-01 -2.43218452e-01  1.16055027e-01  2.54428517e-02
   1.74473238e+00 -2.56254613e-01 -4.45838302e-01  1.24503815e+00
   1.80072033e+00  1.09635341e+00]
 [ 7.58353829e-01 -1.98076203e-01 -7.96912968e-01 -4.46387380e-01
  -2.05443263e+00 -8.26299116e-02  4.39148545e-01  3.87409478e-01
  -2.07797617e-01 -1.24876106e+00]
 [ 7.62404740e-01  3.02240074e-01 -1.78495318e-01 -3.77804548e-01
  -1.19816017e+00  2.13503405e-01  5.04232407e-01 -2.73428202e+00
  -3.11893195e-01 -6.32542551e-01]
 [-8.70584011e-01  3.17707926e-01 -4.71562386e-01  4.89425868e-01
   2.31118894e+00  2.71426648e-01  6.27935886e-01 -7.55638629e-02
   1.05885589e+00  6.05583429e-01]
 [ 8.79248857e-01 -4.41452116e-02 -4.67745006e-01 -7.90094435e-02
  -1.95307362e+00  1.44739717e-01  4.97360855e-01 -9.35128212e-01
  -2.42123395e-01 -6.08435739e-03]
 [-8.88313949e-01  3.26321751e-01 -4.62807119e-01  6.46245539e-01
   2.35595322e+00  1.51448488e-01  6.07555449e-01 -1.08561344e-01
   1.09150231e+00  8.65301192e-01]
 [ 1.68708432e-02 -1.27423927e-02 -1.03726378e-02  7.27919698e-01
   3.87586743e-01 -2.04587936e-01 -2.55689472e-01 -4.26710904e-01
   2.46007174e-01  1.81209660e+00]
 [-8.27946126e-01  6.50144458e-01 -7.45262265e-01  4.56766449e-02
   1.42034709e+00  5.99233508e-01  8.32586527e-01  1.37994602e-01
  -8.45386028e-01 -9.29737568e-01]
 [ 5.57524741e-01 -3.98575902e-01  4.38755363e-01 -1.67378455e-01
  -9.88322377e-01 -3.26999962e-01 -4.51627165e-01  2.61859130e-02
   3.23381484e-01  5.58867157e-01]
 [-1.94795817e-01  4.58432036e-03  8.96192133e-01  6.03796244e-01
  -9.11209464e-01 -1.20686102e+00  5.22613704e-01  1.73101223e+00
   4.38649774e-01  1.29059958e+00]
 [ 6.60413980e-01 -2.69672692e-01  1.10229328e-01  1.31659448e-01
   1.94977641e+00 -3.16190153e-01 -5.12367904e-01  1.26764548e+00
   2.08785939e+00  1.51839232e+00]
 [-5.64568400e-01 -1.00552306e-01 -5.81477433e-02 -3.47981811e-01
  -1.28290093e+00 -1.80849284e-01  3.94527733e-01  1.01590216e+00
   6.13610327e-01 -6.40094995e-01]
 [-2.29267538e-01 -6.49624467e-02 -4.99425143e-01  2.38091890e-02
  -3.11572760e-01 -1.62262246e-01  3.45229924e-01  1.73063266e+00
   1.26575768e-01  1.45692372e+00]
 [-1.38330474e-01  1.33721024e-01 -1.72253430e-01  1.21767513e-01
   3.02740431e+00 -3.21386606e-01 -3.84881794e-01  7.23640800e-01
   2.56543875e-01  1.11343753e+00]]","[ 1.2085992   0.6191763   0.03027773 -0.7030413   0.04442953  0.31682897
  0.45503697 -0.7088065   0.54055375  0.51669097  0.44998518 -0.05251722
 -0.67468005 -1.6188157  -0.44181353  2.618797   -1.2014565   0.24797703
  1.4848098   1.0818684   0.23778981  0.33043355 -0.25055498 -0.04487602
  0.848139   -0.70892483  0.8748415   0.24540496 -0.18661837  0.39835358
  1.3698553   0.29614913  0.86417925  0.3803906   1.4566855 ]","[[-2.2408192  -1.5608388   2.0470254   2.3091006  -1.9712999  -3.2755284
  -3.2988658   1.0939455   0.9654104   2.6967883  -3.3921266  -1.0255424
  -2.558506    2.7766054   2.2752767   3.436808    1.612165    0.7045551
   1.3251706  -2.9987676   4.152212   -3.4490006   0.90252995 -3.7425818
  -2.957231    2.4563084   2.0622704  -1.2620806   0.7704465  -1.2974406
   2.2057757   2.9732008   0.76998925 -2.8357248  -3.1033597 ]]",[0.2818663]
"[[ 3.14919911e-02 -7.03999326e-02 -4.52785045e-01  3.64079535e-01
  -1.29657507e-01 -1.31936574e+00 -2.04740897e-01  7.22010076e-01
   9.52495694e-01 -5.12596183e-02]
 [-4.28840607e-01 -2.61255503e-01 -2.74170488e-01  1.04175739e-01
  -1.44449198e+00 -2.61684626e-01  4.46412683e-01 -1.65843487e-01
   2.34883368e-01  6.20721757e-01]
 [ 5.20755768e-01  5.13532937e-01 -8.22783932e-02  2.74434566e-01
  -1.43349731e+00  3.69260460e-01  4.86092299e-01 -2.25284266e+00
  -6.88483417e-01 -1.82979539e-01]
 [ 5.97868741e-01 -9.75920409e-02 -1.27614617e+00 -2.68176854e-01
   7.63156652e-01 -1.57047784e+00  5.15850544e-01 -9.01381075e-01
   1.32245827e+00 -1.59191608e+00]
 [ 4.24391538e-01  4.40220654e-01 -1.10153683e-01  8.28053728e-02
  -1.18517661e+00  4.67010081e-01  5.20328462e-01 -1.67544305e+00
  -3.28103781e-01 -5.63946545e-01]
 [-7.44762123e-01 -2.98816085e-01  1.48855209e-01  1.40316918e-01
   1.12768281e+00 -2.58159041e-01 -4.50193793e-01  2.15837073e+00
   6.22372888e-03  9.64191079e-01]
 [-4.20217097e-01  6.48640394e-02  8.90161574e-01  2.29720250e-01
  -5.33820450e-01  1.05632925e+00 -3.93530577e-01  6.03285372e-01
  -8.97486985e-01  1.15911090e+00]
 [ 4.06687468e-01  3.21090490e-01  4.19522285e-01 -2.20419511e-01
   1.65790308e+00  2.92873234e-01 -5.86472809e-01  7.92470813e-01
  -1.12356003e-02 -1.46607244e+00]
 [-8.73569727e-01  3.28834563e-01 -4.47187990e-01 -1.96027253e-02
   2.50347376e+00  4.55246836e-01  5.85422873e-01  6.47768974e-01
   1.41478896e+00 -8.33888412e-01]
 [-1.43660688e+00 -6.71871006e-01 -1.34389371e-01  2.59653717e-01
   3.58191758e-01  9.40873444e-01 -4.42077696e-01  3.02437395e-01
   1.23365331e+00  2.21802878e+00]
 [-1.14102626e+00 -5.44897199e-01 -1.07491136e-01  1.15788899e-01
   2.77134120e-01  7.70773113e-01 -3.16118866e-01  2.64326960e-01
   1.01012921e+00  1.66350484e+00]
 [ 3.87477249e-01 -1.94482192e-01 -6.11378789e-01  5.76563701e-02
  -1.48216212e+00  2.51701269e-02  1.86653897e-01  1.20045558e-01
  -5.26722908e-01 -1.78429857e-01]
 [ 9.36972022e-01 -5.02292067e-02 -4.78078008e-01 -3.27753156e-01
  -1.93588996e+00  1.03497751e-01  5.65833509e-01 -8.24224591e-01
  -7.52250552e-02 -2.44655758e-01]
 [ 1.32855490e-01 -1.38087377e-01  1.80403024e-01 -2.90755808e-01
  -3.26747966e+00  3.77359599e-01  4.24232334e-01 -6.11069143e-01
  -2.01536223e-01 -1.60667992e+00]
 [ 2.54829139e-01  5.34144938e-02  5.83149910e-01 -1.91762179e-01
   3.47377777e-01  2.02172697e-01 -3.37806553e-01 -1.96350765e+00
  -1.45002589e-01 -1.99568045e+00]
 [ 6.21662773e-02 -1.71071477e-02 -1.18372507e-01  2.90873796e-01
   2.05830671e-02 -1.87738732e-01 -9.58573222e-02  6.64493665e-02
   4.10272777e-02  2.97078538e+00]
 [-1.92692541e-02  2.34790929e-02  4.21589494e-01 -5.29862940e-01
   1.71050861e-01  1.32944381e+00  2.88421005e-01 -6.61804676e-01
  -9.19997096e-01 -2.28780523e-01]
 [-2.07321402e-02 -1.51435554e-01 -7.83584826e-03 -8.38633060e-01
  -8.94297287e-02 -1.97171479e-01  2.61879057e-01  1.37240410e+00
   1.84758902e-01 -1.08028936e+00]
 [ 3.10957402e-01  3.06698024e-01 -4.49991273e-03  1.88547343e-01
  -3.10425344e-03  1.33790262e-02 -3.49563621e-02 -4.39998433e-02
   7.72845522e-02  1.71889496e+00]
 [-1.91321656e-01 -2.59254919e-03  6.72638655e-01  4.05075938e-01
  -7.32702255e-01 -9.03435349e-01  4.33518559e-01  1.43636119e+00
   3.68725002e-01  8.26981843e-01]
 [-1.19553423e+00 -4.72638249e-01  2.78595388e-01  5.66259444e-01
   1.81516886e+00 -4.46378797e-01 -8.33043277e-01  3.75437212e+00
   1.41055226e-01  1.62607169e+00]
 [ 5.77190578e-01 -2.43218452e-01  1.16055027e-01  2.54428517e-02
   1.74473238e+00 -2.56254613e-01 -4.45838302e-01  1.24503815e+00
   1.80072033e+00  1.09635341e+00]
 [ 7.58353829e-01 -1.98076203e-01 -7.96912968e-01 -4.46387380e-01
  -2.05443263e+00 -8.26299116e-02  4.39148545e-01  3.87409478e-01
  -2.07797617e-01 -1.24876106e+00]
 [ 7.62404740e-01  3.02240074e-01 -1.78495318e-01 -3.77804548e-01
  -1.19816017e+00  2.13503405e-01  5.04232407e-01 -2.73428202e+00
  -3.11893195e-01 -6.32542551e-01]
 [-8.70584011e-01  3.17707926e-01 -4.71562386e-01  4.89425868e-01
   2.31118894e+00  2.71426648e-01  6.27935886e-01 -7.55638629e-02
   1.05885589e+00  6.05583429e-01]
 [ 8.79248857e-01 -4.41452116e-02 -4.67745006e-01 -7.90094435e-02
  -1.95307362e+00  1.44739717e-01  4.97360855e-01 -9.35128212e-01
  -2.42123395e-01 -6.08435739e-03]
 [-8.88313949e-01  3.26321751e-01 -4.62807119e-01  6.46245539e-01
   2.35595322e+00  1.51448488e-01  6.07555449e-01 -1.08561344e-01
   1.09150231e+00  8.65301192e-01]
 [ 1.68708432e-02 -1.27423927e-02 -1.03726378e-02  7.27919698e-01
   3.87586743e-01 -2.04587936e-01 -2.55689472e-01 -4.26710904e-01
   2.46007174e-01  1.81209660e+00]
 [-8.27946126e-01  6.50144458e-01 -7.45262265e-01  4.56766449e-02
   1.42034709e+00  5.99233508e-01  8.32586527e-01  1.37994602e-01
  -8.45386028e-01 -9.29737568e-01]
 [ 5.57524741e-01 -3.98575902e-01  4.38755363e-01 -1.67378455e-01
  -9.88322377e-01 -3.26999962e-01 -4.51627165e-01  2.61859130e-02
   3.23381484e-01  5.58867157e-01]
 [-1.94795817e-01  4.58432036e-03  8.96192133e-01  6.03796244e-01
  -9.11209464e-01 -1.20686102e+00  5.22613704e-01  1.73101223e+00
   4.38649774e-01  1.29059958e+00]
 [ 6.60413980e-01 -2.69672692e-01  1.10229328e-01  1.31659448e-01
   1.94977641e+00 -3.16190153e-01 -5.12367904e-01  1.26764548e+00
   2.08785939e+00  1.51839232e+00]
 [-5.64568400e-01 -1.00552306e-01 -5.81477433e-02 -3.47981811e-01
  -1.28290093e+00 -1.80849284e-01  3.94527733e-01  1.01590216e+00
   6.13610327e-01 -6.40094995e-01]
 [-2.29267538e-01 -6.49624467e-02 -4.99425143e-01  2.38091890e-02
  -3.11572760e-01 -1.62262246e-01  3.45229924e-01  1.73063266e+00
   1.26575768e-01  1.45692372e+00]
 [-1.38330474e-01  1.33721024e-01 -1.72253430e-01  1.21767513e-01
   3.02740431e+00 -3.21386606e-01 -3.84881794e-01  7.23640800e-01
   2.56543875e-01  1.11343753e+00]]","[ 1.2085992   0.6191763   0.03027773 -0.7030413   0.04442953  0.31682897
  0.45503697 -0.7088065   0.54055375  0.51669097  0.44998518 -0.05251722
 -0.67468005 -1.6188157  -0.44181353  2.618797   -1.2014565   0.24797703
  1.4848098   1.0818684   0.23778981  0.33043355 -0.25055498 -0.04487602
  0.848139   -0.70892483  0.8748415   0.24540496 -0.18661837  0.39835358
  1.3698553   0.29614913  0.86417925  0.3803906   1.4566855 ]","[[-2.2408192  -1.5608388   2.0470254   2.3091006  -1.9712999  -3.2755284
  -3.2988658   1.0939455   0.9654104   2.6967883  -3.3921266  -1.0255424
  -2.558506    2.7766054   2.2752767   3.436808    1.612165    0.7045551
   1.3251706  -2.9987676   4.152212   -3.4490006   0.90252995 -3.7425818
  -2.957231    2.4563084   2.0622704  -1.2620806   0.7704465  -1.2974406
   2.2057757   2.9732008   0.76998925 -2.8357248  -3.1033597 ]]",[0.2818663]
"[[ 3.14919911e-02 -7.03999326e-02 -4.52785045e-01  3.64079535e-01
  -1.29657507e-01 -1.31936574e+00 -2.04740897e-01  7.22010076e-01
   9.52495694e-01 -5.12596183e-02]
 [-4.28840607e-01 -2.61255503e-01 -2.74170488e-01  1.04175739e-01
  -1.44449198e+00 -2.61684626e-01  4.46412683e-01 -1.65843487e-01
   2.34883368e-01  6.20721757e-01]
 [ 5.20755768e-01  5.13532937e-01 -8.22783932e-02  2.74434566e-01
  -1.43349731e+00  3.69260460e-01  4.86092299e-01 -2.25284266e+00
  -6.88483417e-01 -1.82979539e-01]
 [ 5.97868741e-01 -9.75920409e-02 -1.27614617e+00 -2.68176854e-01
   7.63156652e-01 -1.57047784e+00  5.15850544e-01 -9.01381075e-01
   1.32245827e+00 -1.59191608e+00]
 [ 4.24391538e-01  4.40220654e-01 -1.10153683e-01  8.28053728e-02
  -1.18517661e+00  4.67010081e-01  5.20328462e-01 -1.67544305e+00
  -3.28103781e-01 -5.63946545e-01]
 [-7.44762123e-01 -2.98816085e-01  1.48855209e-01  1.40316918e-01
   1.12768281e+00 -2.58159041e-01 -4.50193793e-01  2.15837073e+00
   6.22372888e-03  9.64191079e-01]
 [-4.20217097e-01  6.48640394e-02  8.90161574e-01  2.29720250e-01
  -5.33820450e-01  1.05632925e+00 -3.93530577e-01  6.03285372e-01
  -8.97486985e-01  1.15911090e+00]
 [ 4.06687468e-01  3.21090490e-01  4.19522285e-01 -2.20419511e-01
   1.65790308e+00  2.92873234e-01 -5.86472809e-01  7.92470813e-01
  -1.12356003e-02 -1.46607244e+00]
 [-8.73569727e-01  3.28834563e-01 -4.47187990e-01 -1.96027253e-02
   2.50347376e+00  4.55246836e-01  5.85422873e-01  6.47768974e-01
   1.41478896e+00 -8.33888412e-01]
 [-1.43660688e+00 -6.71871006e-01 -1.34389371e-01  2.59653717e-01
   3.58191758e-01  9.40873444e-01 -4.42077696e-01  3.02437395e-01
   1.23365331e+00  2.21802878e+00]
 [-1.14102626e+00 -5.44897199e-01 -1.07491136e-01  1.15788899e-01
   2.77134120e-01  7.70773113e-01 -3.16118866e-01  2.64326960e-01
   1.01012921e+00  1.66350484e+00]
 [ 3.87477249e-01 -1.94482192e-01 -6.11378789e-01  5.76563701e-02
  -1.48216212e+00  2.51701269e-02  1.86653897e-01  1.20045558e-01
  -5.26722908e-01 -1.78429857e-01]
 [ 9.36972022e-01 -5.02292067e-02 -4.78078008e-01 -3.27753156e-01
  -1.93588996e+00  1.03497751e-01  5.65833509e-01 -8.24224591e-01
  -7.52250552e-02 -2.44655758e-01]
 [ 1.32855490e-01 -1.38087377e-01  1.80403024e-01 -2.90755808e-01
  -3.26747966e+00  3.77359599e-01  4.24232334e-01 -6.11069143e-01
  -2.01536223e-01 -1.60667992e+00]
 [ 2.54829139e-01  5.34144938e-02  5.83149910e-01 -1.91762179e-01
   3.47377777e-01  2.02172697e-01 -3.37806553e-01 -1.96350765e+00
  -1.45002589e-01 -1.99568045e+00]
 [ 6.21662773e-02 -1.71071477e-02 -1.18372507e-01  2.90873796e-01
   2.05830671e-02 -1.87738732e-01 -9.58573222e-02  6.64493665e-02
   4.10272777e-02  2.97078538e+00]
 [-1.92692541e-02  2.34790929e-02  4.21589494e-01 -5.29862940e-01
   1.71050861e-01  1.32944381e+00  2.88421005e-01 -6.61804676e-01
  -9.19997096e-01 -2.28780523e-01]
 [-2.07321402e-02 -1.51435554e-01 -7.83584826e-03 -8.38633060e-01
  -8.94297287e-02 -1.97171479e-01  2.61879057e-01  1.37240410e+00
   1.84758902e-01 -1.08028936e+00]
 [ 3.10957402e-01  3.06698024e-01 -4.49991273e-03  1.88547343e-01
  -3.10425344e-03  1.33790262e-02 -3.49563621e-02 -4.39998433e-02
   7.72845522e-02  1.71889496e+00]
 [-1.91321656e-01 -2.59254919e-03  6.72638655e-01  4.05075938e-01
  -7.32702255e-01 -9.03435349e-01  4.33518559e-01  1.43636119e+00
   3.68725002e-01  8.26981843e-01]
 [-1.19553423e+00 -4.72638249e-01  2.78595388e-01  5.66259444e-01
   1.81516886e+00 -4.46378797e-01 -8.33043277e-01  3.75437212e+00
   1.41055226e-01  1.62607169e+00]
 [ 5.77190578e-01 -2.43218452e-01  1.16055027e-01  2.54428517e-02
   1.74473238e+00 -2.56254613e-01 -4.45838302e-01  1.24503815e+00
   1.80072033e+00  1.09635341e+00]
 [ 7.58353829e-01 -1.98076203e-01 -7.96912968e-01 -4.46387380e-01
  -2.05443263e+00 -8.26299116e-02  4.39148545e-01  3.87409478e-01
  -2.07797617e-01 -1.24876106e+00]
 [ 7.62404740e-01  3.02240074e-01 -1.78495318e-01 -3.77804548e-01
  -1.19816017e+00  2.13503405e-01  5.04232407e-01 -2.73428202e+00
  -3.11893195e-01 -6.32542551e-01]
 [-8.70584011e-01  3.17707926e-01 -4.71562386e-01  4.89425868e-01
   2.31118894e+00  2.71426648e-01  6.27935886e-01 -7.55638629e-02
   1.05885589e+00  6.05583429e-01]
 [ 8.79248857e-01 -4.41452116e-02 -4.67745006e-01 -7.90094435e-02
  -1.95307362e+00  1.44739717e-01  4.97360855e-01 -9.35128212e-01
  -2.42123395e-01 -6.08435739e-03]
 [-8.88313949e-01  3.26321751e-01 -4.62807119e-01  6.46245539e-01
   2.35595322e+00  1.51448488e-01  6.07555449e-01 -1.08561344e-01
   1.09150231e+00  8.65301192e-01]
 [ 1.68708432e-02 -1.27423927e-02 -1.03726378e-02  7.27919698e-01
   3.87586743e-01 -2.04587936e-01 -2.55689472e-01 -4.26710904e-01
   2.46007174e-01  1.81209660e+00]
 [-8.27946126e-01  6.50144458e-01 -7.45262265e-01  4.56766449e-02
   1.42034709e+00  5.99233508e-01  8.32586527e-01  1.37994602e-01
  -8.45386028e-01 -9.29737568e-01]
 [ 5.57524741e-01 -3.98575902e-01  4.38755363e-01 -1.67378455e-01
  -9.88322377e-01 -3.26999962e-01 -4.51627165e-01  2.61859130e-02
   3.23381484e-01  5.58867157e-01]
 [-1.94795817e-01  4.58432036e-03  8.96192133e-01  6.03796244e-01
  -9.11209464e-01 -1.20686102e+00  5.22613704e-01  1.73101223e+00
   4.38649774e-01  1.29059958e+00]
 [ 6.60413980e-01 -2.69672692e-01  1.10229328e-01  1.31659448e-01
   1.94977641e+00 -3.16190153e-01 -5.12367904e-01  1.26764548e+00
   2.08785939e+00  1.51839232e+00]
 [-5.64568400e-01 -1.00552306e-01 -5.81477433e-02 -3.47981811e-01
  -1.28290093e+00 -1.80849284e-01  3.94527733e-01  1.01590216e+00
   6.13610327e-01 -6.40094995e-01]
 [-2.29267538e-01 -6.49624467e-02 -4.99425143e-01  2.38091890e-02
  -3.11572760e-01 -1.62262246e-01  3.45229924e-01  1.73063266e+00
   1.26575768e-01  1.45692372e+00]
 [-1.38330474e-01  1.33721024e-01 -1.72253430e-01  1.21767513e-01
   3.02740431e+00 -3.21386606e-01 -3.84881794e-01  7.23640800e-01
   2.56543875e-01  1.11343753e+00]]","[ 1.2085992   0.6191763   0.03027773 -0.7030413   0.04442953  0.31682897
  0.45503697 -0.7088065   0.54055375  0.51669097  0.44998518 -0.05251722
 -0.67468005 -1.6188157  -0.44181353  2.618797   -1.2014565   0.24797703
  1.4848098   1.0818684   0.23778981  0.33043355 -0.25055498 -0.04487602
  0.848139   -0.70892483  0.8748415   0.24540496 -0.18661837  0.39835358
  1.3698553   0.29614913  0.86417925  0.3803906   1.4566855 ]","[[-2.2408192  -1.5608388   2.0470254   2.3091006  -1.9712999  -3.2755284
  -3.2988658   1.0939455   0.9654104   2.6967883  -3.3921266  -1.0255424
  -2.558506    2.7766054   2.2752767   3.436808    1.612165    0.7045551
   1.3251706  -2.9987676   4.152212   -3.4490006   0.90252995 -3.7425818
  -2.957231    2.4563084   2.0622704  -1.2620806   0.7704465  -1.2974406
   2.2057757   2.9732008   0.76998925 -2.8357248  -3.1033597 ]]",[0.2818663]
"[[ 3.14919911e-02 -7.03999326e-02 -4.52785045e-01  3.64079535e-01
  -1.29657507e-01 -1.31936574e+00 -2.04740897e-01  7.22010076e-01
   9.52495694e-01 -5.12596183e-02]
 [-4.28840607e-01 -2.61255503e-01 -2.74170488e-01  1.04175739e-01
  -1.44449198e+00 -2.61684626e-01  4.46412683e-01 -1.65843487e-01
   2.34883368e-01  6.20721757e-01]
 [ 5.20755768e-01  5.13532937e-01 -8.22783932e-02  2.74434566e-01
  -1.43349731e+00  3.69260460e-01  4.86092299e-01 -2.25284266e+00
  -6.88483417e-01 -1.82979539e-01]
 [ 5.97868741e-01 -9.75920409e-02 -1.27614617e+00 -2.68176854e-01
   7.63156652e-01 -1.57047784e+00  5.15850544e-01 -9.01381075e-01
   1.32245827e+00 -1.59191608e+00]
 [ 4.24391538e-01  4.40220654e-01 -1.10153683e-01  8.28053728e-02
  -1.18517661e+00  4.67010081e-01  5.20328462e-01 -1.67544305e+00
  -3.28103781e-01 -5.63946545e-01]
 [-7.44762123e-01 -2.98816085e-01  1.48855209e-01  1.40316918e-01
   1.12768281e+00 -2.58159041e-01 -4.50193793e-01  2.15837073e+00
   6.22372888e-03  9.64191079e-01]
 [-4.20217097e-01  6.48640394e-02  8.90161574e-01  2.29720250e-01
  -5.33820450e-01  1.05632925e+00 -3.93530577e-01  6.03285372e-01
  -8.97486985e-01  1.15911090e+00]
 [ 4.06687468e-01  3.21090490e-01  4.19522285e-01 -2.20419511e-01
   1.65790308e+00  2.92873234e-01 -5.86472809e-01  7.92470813e-01
  -1.12356003e-02 -1.46607244e+00]
 [-8.73569727e-01  3.28834563e-01 -4.47187990e-01 -1.96027253e-02
   2.50347376e+00  4.55246836e-01  5.85422873e-01  6.47768974e-01
   1.41478896e+00 -8.33888412e-01]
 [-1.43660688e+00 -6.71871006e-01 -1.34389371e-01  2.59653717e-01
   3.58191758e-01  9.40873444e-01 -4.42077696e-01  3.02437395e-01
   1.23365331e+00  2.21802878e+00]
 [-1.14102626e+00 -5.44897199e-01 -1.07491136e-01  1.15788899e-01
   2.77134120e-01  7.70773113e-01 -3.16118866e-01  2.64326960e-01
   1.01012921e+00  1.66350484e+00]
 [ 3.87477249e-01 -1.94482192e-01 -6.11378789e-01  5.76563701e-02
  -1.48216212e+00  2.51701269e-02  1.86653897e-01  1.20045558e-01
  -5.26722908e-01 -1.78429857e-01]
 [ 9.36972022e-01 -5.02292067e-02 -4.78078008e-01 -3.27753156e-01
  -1.93588996e+00  1.03497751e-01  5.65833509e-01 -8.24224591e-01
  -7.52250552e-02 -2.44655758e-01]
 [ 1.32855490e-01 -1.38087377e-01  1.80403024e-01 -2.90755808e-01
  -3.26747966e+00  3.77359599e-01  4.24232334e-01 -6.11069143e-01
  -2.01536223e-01 -1.60667992e+00]
 [ 2.54829139e-01  5.34144938e-02  5.83149910e-01 -1.91762179e-01
   3.47377777e-01  2.02172697e-01 -3.37806553e-01 -1.96350765e+00
  -1.45002589e-01 -1.99568045e+00]
 [ 6.21662773e-02 -1.71071477e-02 -1.18372507e-01  2.90873796e-01
   2.05830671e-02 -1.87738732e-01 -9.58573222e-02  6.64493665e-02
   4.10272777e-02  2.97078538e+00]
 [-1.92692541e-02  2.34790929e-02  4.21589494e-01 -5.29862940e-01
   1.71050861e-01  1.32944381e+00  2.88421005e-01 -6.61804676e-01
  -9.19997096e-01 -2.28780523e-01]
 [-2.07321402e-02 -1.51435554e-01 -7.83584826e-03 -8.38633060e-01
  -8.94297287e-02 -1.97171479e-01  2.61879057e-01  1.37240410e+00
   1.84758902e-01 -1.08028936e+00]
 [ 3.10957402e-01  3.06698024e-01 -4.49991273e-03  1.88547343e-01
  -3.10425344e-03  1.33790262e-02 -3.49563621e-02 -4.39998433e-02
   7.72845522e-02  1.71889496e+00]
 [-1.91321656e-01 -2.59254919e-03  6.72638655e-01  4.05075938e-01
  -7.32702255e-01 -9.03435349e-01  4.33518559e-01  1.43636119e+00
   3.68725002e-01  8.26981843e-01]
 [-1.19553423e+00 -4.72638249e-01  2.78595388e-01  5.66259444e-01
   1.81516886e+00 -4.46378797e-01 -8.33043277e-01  3.75437212e+00
   1.41055226e-01  1.62607169e+00]
 [ 5.77190578e-01 -2.43218452e-01  1.16055027e-01  2.54428517e-02
   1.74473238e+00 -2.56254613e-01 -4.45838302e-01  1.24503815e+00
   1.80072033e+00  1.09635341e+00]
 [ 7.58353829e-01 -1.98076203e-01 -7.96912968e-01 -4.46387380e-01
  -2.05443263e+00 -8.26299116e-02  4.39148545e-01  3.87409478e-01
  -2.07797617e-01 -1.24876106e+00]
 [ 7.62404740e-01  3.02240074e-01 -1.78495318e-01 -3.77804548e-01
  -1.19816017e+00  2.13503405e-01  5.04232407e-01 -2.73428202e+00
  -3.11893195e-01 -6.32542551e-01]
 [-8.70584011e-01  3.17707926e-01 -4.71562386e-01  4.89425868e-01
   2.31118894e+00  2.71426648e-01  6.27935886e-01 -7.55638629e-02
   1.05885589e+00  6.05583429e-01]
 [ 8.79248857e-01 -4.41452116e-02 -4.67745006e-01 -7.90094435e-02
  -1.95307362e+00  1.44739717e-01  4.97360855e-01 -9.35128212e-01
  -2.42123395e-01 -6.08435739e-03]
 [-8.88313949e-01  3.26321751e-01 -4.62807119e-01  6.46245539e-01
   2.35595322e+00  1.51448488e-01  6.07555449e-01 -1.08561344e-01
   1.09150231e+00  8.65301192e-01]
 [ 1.68708432e-02 -1.27423927e-02 -1.03726378e-02  7.27919698e-01
   3.87586743e-01 -2.04587936e-01 -2.55689472e-01 -4.26710904e-01
   2.46007174e-01  1.81209660e+00]
 [-8.27946126e-01  6.50144458e-01 -7.45262265e-01  4.56766449e-02
   1.42034709e+00  5.99233508e-01  8.32586527e-01  1.37994602e-01
  -8.45386028e-01 -9.29737568e-01]
 [ 5.57524741e-01 -3.98575902e-01  4.38755363e-01 -1.67378455e-01
  -9.88322377e-01 -3.26999962e-01 -4.51627165e-01  2.61859130e-02
   3.23381484e-01  5.58867157e-01]
 [-1.94795817e-01  4.58432036e-03  8.96192133e-01  6.03796244e-01
  -9.11209464e-01 -1.20686102e+00  5.22613704e-01  1.73101223e+00
   4.38649774e-01  1.29059958e+00]
 [ 6.60413980e-01 -2.69672692e-01  1.10229328e-01  1.31659448e-01
   1.94977641e+00 -3.16190153e-01 -5.12367904e-01  1.26764548e+00
   2.08785939e+00  1.51839232e+00]
 [-5.64568400e-01 -1.00552306e-01 -5.81477433e-02 -3.47981811e-01
  -1.28290093e+00 -1.80849284e-01  3.94527733e-01  1.01590216e+00
   6.13610327e-01 -6.40094995e-01]
 [-2.29267538e-01 -6.49624467e-02 -4.99425143e-01  2.38091890e-02
  -3.11572760e-01 -1.62262246e-01  3.45229924e-01  1.73063266e+00
   1.26575768e-01  1.45692372e+00]
 [-1.38330474e-01  1.33721024e-01 -1.72253430e-01  1.21767513e-01
   3.02740431e+00 -3.21386606e-01 -3.84881794e-01  7.23640800e-01
   2.56543875e-01  1.11343753e+00]]","[ 1.2085992   0.6191763   0.03027773 -0.7030413   0.04442953  0.31682897
  0.45503697 -0.7088065   0.54055375  0.51669097  0.44998518 -0.05251722
 -0.67468005 -1.6188157  -0.44181353  2.618797   -1.2014565   0.24797703
  1.4848098   1.0818684   0.23778981  0.33043355 -0.25055498 -0.04487602
  0.848139   -0.70892483  0.8748415   0.24540496 -0.18661837  0.39835358
  1.3698553   0.29614913  0.86417925  0.3803906   1.4566855 ]","[[-2.2408192  -1.5608388   2.0470254   2.3091006  -1.9712999  -3.2755284
  -3.2988658   1.0939455   0.9654104   2.6967883  -3.3921266  -1.0255424
  -2.558506    2.7766054   2.2752767   3.436808    1.612165    0.7045551
   1.3251706  -2.9987676   4.152212   -3.4490006   0.90252995 -3.7425818
  -2.957231    2.4563084   2.0622704  -1.2620806   0.7704465  -1.2974406
   2.2057757   2.9732008   0.76998925 -2.8357248  -3.1033597 ]]",[0.2818663]
"[[ 3.14919911e-02 -7.03999326e-02 -4.52785045e-01  3.64079535e-01
  -1.29657507e-01 -1.31936574e+00 -2.04740897e-01  7.22010076e-01
   9.52495694e-01 -5.12596183e-02]
 [-4.28840607e-01 -2.61255503e-01 -2.74170488e-01  1.04175739e-01
  -1.44449198e+00 -2.61684626e-01  4.46412683e-01 -1.65843487e-01
   2.34883368e-01  6.20721757e-01]
 [ 5.20755768e-01  5.13532937e-01 -8.22783932e-02  2.74434566e-01
  -1.43349731e+00  3.69260460e-01  4.86092299e-01 -2.25284266e+00
  -6.88483417e-01 -1.82979539e-01]
 [ 5.97868741e-01 -9.75920409e-02 -1.27614617e+00 -2.68176854e-01
   7.63156652e-01 -1.57047784e+00  5.15850544e-01 -9.01381075e-01
   1.32245827e+00 -1.59191608e+00]
 [ 4.24391538e-01  4.40220654e-01 -1.10153683e-01  8.28053728e-02
  -1.18517661e+00  4.67010081e-01  5.20328462e-01 -1.67544305e+00
  -3.28103781e-01 -5.63946545e-01]
 [-7.44762123e-01 -2.98816085e-01  1.48855209e-01  1.40316918e-01
   1.12768281e+00 -2.58159041e-01 -4.50193793e-01  2.15837073e+00
   6.22372888e-03  9.64191079e-01]
 [-4.20217097e-01  6.48640394e-02  8.90161574e-01  2.29720250e-01
  -5.33820450e-01  1.05632925e+00 -3.93530577e-01  6.03285372e-01
  -8.97486985e-01  1.15911090e+00]
 [ 4.06687468e-01  3.21090490e-01  4.19522285e-01 -2.20419511e-01
   1.65790308e+00  2.92873234e-01 -5.86472809e-01  7.92470813e-01
  -1.12356003e-02 -1.46607244e+00]
 [-8.73569727e-01  3.28834563e-01 -4.47187990e-01 -1.96027253e-02
   2.50347376e+00  4.55246836e-01  5.85422873e-01  6.47768974e-01
   1.41478896e+00 -8.33888412e-01]
 [-1.43660688e+00 -6.71871006e-01 -1.34389371e-01  2.59653717e-01
   3.58191758e-01  9.40873444e-01 -4.42077696e-01  3.02437395e-01
   1.23365331e+00  2.21802878e+00]
 [-1.14102626e+00 -5.44897199e-01 -1.07491136e-01  1.15788899e-01
   2.77134120e-01  7.70773113e-01 -3.16118866e-01  2.64326960e-01
   1.01012921e+00  1.66350484e+00]
 [ 3.87477249e-01 -1.94482192e-01 -6.11378789e-01  5.76563701e-02
  -1.48216212e+00  2.51701269e-02  1.86653897e-01  1.20045558e-01
  -5.26722908e-01 -1.78429857e-01]
 [ 9.36972022e-01 -5.02292067e-02 -4.78078008e-01 -3.27753156e-01
  -1.93588996e+00  1.03497751e-01  5.65833509e-01 -8.24224591e-01
  -7.52250552e-02 -2.44655758e-01]
 [ 1.32855490e-01 -1.38087377e-01  1.80403024e-01 -2.90755808e-01
  -3.26747966e+00  3.77359599e-01  4.24232334e-01 -6.11069143e-01
  -2.01536223e-01 -1.60667992e+00]
 [ 2.54829139e-01  5.34144938e-02  5.83149910e-01 -1.91762179e-01
   3.47377777e-01  2.02172697e-01 -3.37806553e-01 -1.96350765e+00
  -1.45002589e-01 -1.99568045e+00]
 [ 6.21662773e-02 -1.71071477e-02 -1.18372507e-01  2.90873796e-01
   2.05830671e-02 -1.87738732e-01 -9.58573222e-02  6.64493665e-02
   4.10272777e-02  2.97078538e+00]
 [-1.92692541e-02  2.34790929e-02  4.21589494e-01 -5.29862940e-01
   1.71050861e-01  1.32944381e+00  2.88421005e-01 -6.61804676e-01
  -9.19997096e-01 -2.28780523e-01]
 [-2.07321402e-02 -1.51435554e-01 -7.83584826e-03 -8.38633060e-01
  -8.94297287e-02 -1.97171479e-01  2.61879057e-01  1.37240410e+00
   1.84758902e-01 -1.08028936e+00]
 [ 3.10957402e-01  3.06698024e-01 -4.49991273e-03  1.88547343e-01
  -3.10425344e-03  1.33790262e-02 -3.49563621e-02 -4.39998433e-02
   7.72845522e-02  1.71889496e+00]
 [-1.91321656e-01 -2.59254919e-03  6.72638655e-01  4.05075938e-01
  -7.32702255e-01 -9.03435349e-01  4.33518559e-01  1.43636119e+00
   3.68725002e-01  8.26981843e-01]
 [-1.19553423e+00 -4.72638249e-01  2.78595388e-01  5.66259444e-01
   1.81516886e+00 -4.46378797e-01 -8.33043277e-01  3.75437212e+00
   1.41055226e-01  1.62607169e+00]
 [ 5.77190578e-01 -2.43218452e-01  1.16055027e-01  2.54428517e-02
   1.74473238e+00 -2.56254613e-01 -4.45838302e-01  1.24503815e+00
   1.80072033e+00  1.09635341e+00]
 [ 7.58353829e-01 -1.98076203e-01 -7.96912968e-01 -4.46387380e-01
  -2.05443263e+00 -8.26299116e-02  4.39148545e-01  3.87409478e-01
  -2.07797617e-01 -1.24876106e+00]
 [ 7.62404740e-01  3.02240074e-01 -1.78495318e-01 -3.77804548e-01
  -1.19816017e+00  2.13503405e-01  5.04232407e-01 -2.73428202e+00
  -3.11893195e-01 -6.32542551e-01]
 [-8.70584011e-01  3.17707926e-01 -4.71562386e-01  4.89425868e-01
   2.31118894e+00  2.71426648e-01  6.27935886e-01 -7.55638629e-02
   1.05885589e+00  6.05583429e-01]
 [ 8.79248857e-01 -4.41452116e-02 -4.67745006e-01 -7.90094435e-02
  -1.95307362e+00  1.44739717e-01  4.97360855e-01 -9.35128212e-01
  -2.42123395e-01 -6.08435739e-03]
 [-8.88313949e-01  3.26321751e-01 -4.62807119e-01  6.46245539e-01
   2.35595322e+00  1.51448488e-01  6.07555449e-01 -1.08561344e-01
   1.09150231e+00  8.65301192e-01]
 [ 1.68708432e-02 -1.27423927e-02 -1.03726378e-02  7.27919698e-01
   3.87586743e-01 -2.04587936e-01 -2.55689472e-01 -4.26710904e-01
   2.46007174e-01  1.81209660e+00]
 [-8.27946126e-01  6.50144458e-01 -7.45262265e-01  4.56766449e-02
   1.42034709e+00  5.99233508e-01  8.32586527e-01  1.37994602e-01
  -8.45386028e-01 -9.29737568e-01]
 [ 5.57524741e-01 -3.98575902e-01  4.38755363e-01 -1.67378455e-01
  -9.88322377e-01 -3.26999962e-01 -4.51627165e-01  2.61859130e-02
   3.23381484e-01  5.58867157e-01]
 [-1.94795817e-01  4.58432036e-03  8.96192133e-01  6.03796244e-01
  -9.11209464e-01 -1.20686102e+00  5.22613704e-01  1.73101223e+00
   4.38649774e-01  1.29059958e+00]
 [ 6.60413980e-01 -2.69672692e-01  1.10229328e-01  1.31659448e-01
   1.94977641e+00 -3.16190153e-01 -5.12367904e-01  1.26764548e+00
   2.08785939e+00  1.51839232e+00]
 [-5.64568400e-01 -1.00552306e-01 -5.81477433e-02 -3.47981811e-01
  -1.28290093e+00 -1.80849284e-01  3.94527733e-01  1.01590216e+00
   6.13610327e-01 -6.40094995e-01]
 [-2.29267538e-01 -6.49624467e-02 -4.99425143e-01  2.38091890e-02
  -3.11572760e-01 -1.62262246e-01  3.45229924e-01  1.73063266e+00
   1.26575768e-01  1.45692372e+00]
 [-1.38330474e-01  1.33721024e-01 -1.72253430e-01  1.21767513e-01
   3.02740431e+00 -3.21386606e-01 -3.84881794e-01  7.23640800e-01
   2.56543875e-01  1.11343753e+00]]","[ 1.2085992   0.6191763   0.03027773 -0.7030413   0.04442953  0.31682897
  0.45503697 -0.7088065   0.54055375  0.51669097  0.44998518 -0.05251722
 -0.67468005 -1.6188157  -0.44181353  2.618797   -1.2014565   0.24797703
  1.4848098   1.0818684   0.23778981  0.33043355 -0.25055498 -0.04487602
  0.848139   -0.70892483  0.8748415   0.24540496 -0.18661837  0.39835358
  1.3698553   0.29614913  0.86417925  0.3803906   1.4566855 ]","[[-2.2408192  -1.5608388   2.0470254   2.3091006  -1.9712999  -3.2755284
  -3.2988658   1.0939455   0.9654104   2.6967883  -3.3921266  -1.0255424
  -2.558506    2.7766054   2.2752767   3.436808    1.612165    0.7045551
   1.3251706  -2.9987676   4.152212   -3.4490006   0.90252995 -3.7425818
  -2.957231    2.4563084   2.0622704  -1.2620806   0.7704465  -1.2974406
   2.2057757   2.9732008   0.76998925 -2.8357248  -3.1033597 ]]",[0.2818663]
"[[ 3.14919911e-02 -7.03999326e-02 -4.52785045e-01  3.64079535e-01
  -1.29657507e-01 -1.31936574e+00 -2.04740897e-01  7.22010076e-01
   9.52495694e-01 -5.12596183e-02]
 [-4.28840607e-01 -2.61255503e-01 -2.74170488e-01  1.04175739e-01
  -1.44449198e+00 -2.61684626e-01  4.46412683e-01 -1.65843487e-01
   2.34883368e-01  6.20721757e-01]
 [ 5.20755768e-01  5.13532937e-01 -8.22783932e-02  2.74434566e-01
  -1.43349731e+00  3.69260460e-01  4.86092299e-01 -2.25284266e+00
  -6.88483417e-01 -1.82979539e-01]
 [ 5.97868741e-01 -9.75920409e-02 -1.27614617e+00 -2.68176854e-01
   7.63156652e-01 -1.57047784e+00  5.15850544e-01 -9.01381075e-01
   1.32245827e+00 -1.59191608e+00]
 [ 4.24391538e-01  4.40220654e-01 -1.10153683e-01  8.28053728e-02
  -1.18517661e+00  4.67010081e-01  5.20328462e-01 -1.67544305e+00
  -3.28103781e-01 -5.63946545e-01]
 [-7.44762123e-01 -2.98816085e-01  1.48855209e-01  1.40316918e-01
   1.12768281e+00 -2.58159041e-01 -4.50193793e-01  2.15837073e+00
   6.22372888e-03  9.64191079e-01]
 [-4.20217097e-01  6.48640394e-02  8.90161574e-01  2.29720250e-01
  -5.33820450e-01  1.05632925e+00 -3.93530577e-01  6.03285372e-01
  -8.97486985e-01  1.15911090e+00]
 [ 4.06687468e-01  3.21090490e-01  4.19522285e-01 -2.20419511e-01
   1.65790308e+00  2.92873234e-01 -5.86472809e-01  7.92470813e-01
  -1.12356003e-02 -1.46607244e+00]
 [-8.73569727e-01  3.28834563e-01 -4.47187990e-01 -1.96027253e-02
   2.50347376e+00  4.55246836e-01  5.85422873e-01  6.47768974e-01
   1.41478896e+00 -8.33888412e-01]
 [-1.43660688e+00 -6.71871006e-01 -1.34389371e-01  2.59653717e-01
   3.58191758e-01  9.40873444e-01 -4.42077696e-01  3.02437395e-01
   1.23365331e+00  2.21802878e+00]
 [-1.14102626e+00 -5.44897199e-01 -1.07491136e-01  1.15788899e-01
   2.77134120e-01  7.70773113e-01 -3.16118866e-01  2.64326960e-01
   1.01012921e+00  1.66350484e+00]
 [ 3.87477249e-01 -1.94482192e-01 -6.11378789e-01  5.76563701e-02
  -1.48216212e+00  2.51701269e-02  1.86653897e-01  1.20045558e-01
  -5.26722908e-01 -1.78429857e-01]
 [ 9.36972022e-01 -5.02292067e-02 -4.78078008e-01 -3.27753156e-01
  -1.93588996e+00  1.03497751e-01  5.65833509e-01 -8.24224591e-01
  -7.52250552e-02 -2.44655758e-01]
 [ 1.32855490e-01 -1.38087377e-01  1.80403024e-01 -2.90755808e-01
  -3.26747966e+00  3.77359599e-01  4.24232334e-01 -6.11069143e-01
  -2.01536223e-01 -1.60667992e+00]
 [ 2.54829139e-01  5.34144938e-02  5.83149910e-01 -1.91762179e-01
   3.47377777e-01  2.02172697e-01 -3.37806553e-01 -1.96350765e+00
  -1.45002589e-01 -1.99568045e+00]
 [ 6.21662773e-02 -1.71071477e-02 -1.18372507e-01  2.90873796e-01
   2.05830671e-02 -1.87738732e-01 -9.58573222e-02  6.64493665e-02
   4.10272777e-02  2.97078538e+00]
 [-1.92692541e-02  2.34790929e-02  4.21589494e-01 -5.29862940e-01
   1.71050861e-01  1.32944381e+00  2.88421005e-01 -6.61804676e-01
  -9.19997096e-01 -2.28780523e-01]
 [-2.07321402e-02 -1.51435554e-01 -7.83584826e-03 -8.38633060e-01
  -8.94297287e-02 -1.97171479e-01  2.61879057e-01  1.37240410e+00
   1.84758902e-01 -1.08028936e+00]
 [ 3.10957402e-01  3.06698024e-01 -4.49991273e-03  1.88547343e-01
  -3.10425344e-03  1.33790262e-02 -3.49563621e-02 -4.39998433e-02
   7.72845522e-02  1.71889496e+00]
 [-1.91321656e-01 -2.59254919e-03  6.72638655e-01  4.05075938e-01
  -7.32702255e-01 -9.03435349e-01  4.33518559e-01  1.43636119e+00
   3.68725002e-01  8.26981843e-01]
 [-1.19553423e+00 -4.72638249e-01  2.78595388e-01  5.66259444e-01
   1.81516886e+00 -4.46378797e-01 -8.33043277e-01  3.75437212e+00
   1.41055226e-01  1.62607169e+00]
 [ 5.77190578e-01 -2.43218452e-01  1.16055027e-01  2.54428517e-02
   1.74473238e+00 -2.56254613e-01 -4.45838302e-01  1.24503815e+00
   1.80072033e+00  1.09635341e+00]
 [ 7.58353829e-01 -1.98076203e-01 -7.96912968e-01 -4.46387380e-01
  -2.05443263e+00 -8.26299116e-02  4.39148545e-01  3.87409478e-01
  -2.07797617e-01 -1.24876106e+00]
 [ 7.62404740e-01  3.02240074e-01 -1.78495318e-01 -3.77804548e-01
  -1.19816017e+00  2.13503405e-01  5.04232407e-01 -2.73428202e+00
  -3.11893195e-01 -6.32542551e-01]
 [-8.70584011e-01  3.17707926e-01 -4.71562386e-01  4.89425868e-01
   2.31118894e+00  2.71426648e-01  6.27935886e-01 -7.55638629e-02
   1.05885589e+00  6.05583429e-01]
 [ 8.79248857e-01 -4.41452116e-02 -4.67745006e-01 -7.90094435e-02
  -1.95307362e+00  1.44739717e-01  4.97360855e-01 -9.35128212e-01
  -2.42123395e-01 -6.08435739e-03]
 [-8.88313949e-01  3.26321751e-01 -4.62807119e-01  6.46245539e-01
   2.35595322e+00  1.51448488e-01  6.07555449e-01 -1.08561344e-01
   1.09150231e+00  8.65301192e-01]
 [ 1.68708432e-02 -1.27423927e-02 -1.03726378e-02  7.27919698e-01
   3.87586743e-01 -2.04587936e-01 -2.55689472e-01 -4.26710904e-01
   2.46007174e-01  1.81209660e+00]
 [-8.27946126e-01  6.50144458e-01 -7.45262265e-01  4.56766449e-02
   1.42034709e+00  5.99233508e-01  8.32586527e-01  1.37994602e-01
  -8.45386028e-01 -9.29737568e-01]
 [ 5.57524741e-01 -3.98575902e-01  4.38755363e-01 -1.67378455e-01
  -9.88322377e-01 -3.26999962e-01 -4.51627165e-01  2.61859130e-02
   3.23381484e-01  5.58867157e-01]
 [-1.94795817e-01  4.58432036e-03  8.96192133e-01  6.03796244e-01
  -9.11209464e-01 -1.20686102e+00  5.22613704e-01  1.73101223e+00
   4.38649774e-01  1.29059958e+00]
 [ 6.60413980e-01 -2.69672692e-01  1.10229328e-01  1.31659448e-01
   1.94977641e+00 -3.16190153e-01 -5.12367904e-01  1.26764548e+00
   2.08785939e+00  1.51839232e+00]
 [-5.64568400e-01 -1.00552306e-01 -5.81477433e-02 -3.47981811e-01
  -1.28290093e+00 -1.80849284e-01  3.94527733e-01  1.01590216e+00
   6.13610327e-01 -6.40094995e-01]
 [-2.29267538e-01 -6.49624467e-02 -4.99425143e-01  2.38091890e-02
  -3.11572760e-01 -1.62262246e-01  3.45229924e-01  1.73063266e+00
   1.26575768e-01  1.45692372e+00]
 [-1.38330474e-01  1.33721024e-01 -1.72253430e-01  1.21767513e-01
   3.02740431e+00 -3.21386606e-01 -3.84881794e-01  7.23640800e-01
   2.56543875e-01  1.11343753e+00]]","[ 1.2085992   0.6191763   0.03027773 -0.7030413   0.04442953  0.31682897
  0.45503697 -0.7088065   0.54055375  0.51669097  0.44998518 -0.05251722
 -0.67468005 -1.6188157  -0.44181353  2.618797   -1.2014565   0.24797703
  1.4848098   1.0818684   0.23778981  0.33043355 -0.25055498 -0.04487602
  0.848139   -0.70892483  0.8748415   0.24540496 -0.18661837  0.39835358
  1.3698553   0.29614913  0.86417925  0.3803906   1.4566855 ]","[[-2.2408192  -1.5608388   2.0470254   2.3091006  -1.9712999  -3.2755284
  -3.2988658   1.0939455   0.9654104   2.6967883  -3.3921266  -1.0255424
  -2.558506    2.7766054   2.2752767   3.436808    1.612165    0.7045551
   1.3251706  -2.9987676   4.152212   -3.4490006   0.90252995 -3.7425818
  -2.957231    2.4563084   2.0622704  -1.2620806   0.7704465  -1.2974406
   2.2057757   2.9732008   0.76998925 -2.8357248  -3.1033597 ]]",[0.2818663]
"[[ 3.14919911e-02 -7.03999326e-02 -4.52785045e-01  3.64079535e-01
  -1.29657507e-01 -1.31936574e+00 -2.04740897e-01  7.22010076e-01
   9.52495694e-01 -5.12596183e-02]
 [-4.28840607e-01 -2.61255503e-01 -2.74170488e-01  1.04175739e-01
  -1.44449198e+00 -2.61684626e-01  4.46412683e-01 -1.65843487e-01
   2.34883368e-01  6.20721757e-01]
 [ 5.20755768e-01  5.13532937e-01 -8.22783932e-02  2.74434566e-01
  -1.43349731e+00  3.69260460e-01  4.86092299e-01 -2.25284266e+00
  -6.88483417e-01 -1.82979539e-01]
 [ 5.97868741e-01 -9.75920409e-02 -1.27614617e+00 -2.68176854e-01
   7.63156652e-01 -1.57047784e+00  5.15850544e-01 -9.01381075e-01
   1.32245827e+00 -1.59191608e+00]
 [ 4.24391538e-01  4.40220654e-01 -1.10153683e-01  8.28053728e-02
  -1.18517661e+00  4.67010081e-01  5.20328462e-01 -1.67544305e+00
  -3.28103781e-01 -5.63946545e-01]
 [-7.44762123e-01 -2.98816085e-01  1.48855209e-01  1.40316918e-01
   1.12768281e+00 -2.58159041e-01 -4.50193793e-01  2.15837073e+00
   6.22372888e-03  9.64191079e-01]
 [-4.20217097e-01  6.48640394e-02  8.90161574e-01  2.29720250e-01
  -5.33820450e-01  1.05632925e+00 -3.93530577e-01  6.03285372e-01
  -8.97486985e-01  1.15911090e+00]
 [ 4.06687468e-01  3.21090490e-01  4.19522285e-01 -2.20419511e-01
   1.65790308e+00  2.92873234e-01 -5.86472809e-01  7.92470813e-01
  -1.12356003e-02 -1.46607244e+00]
 [-8.73569727e-01  3.28834563e-01 -4.47187990e-01 -1.96027253e-02
   2.50347376e+00  4.55246836e-01  5.85422873e-01  6.47768974e-01
   1.41478896e+00 -8.33888412e-01]
 [-1.43660688e+00 -6.71871006e-01 -1.34389371e-01  2.59653717e-01
   3.58191758e-01  9.40873444e-01 -4.42077696e-01  3.02437395e-01
   1.23365331e+00  2.21802878e+00]
 [-1.14102626e+00 -5.44897199e-01 -1.07491136e-01  1.15788899e-01
   2.77134120e-01  7.70773113e-01 -3.16118866e-01  2.64326960e-01
   1.01012921e+00  1.66350484e+00]
 [ 3.87477249e-01 -1.94482192e-01 -6.11378789e-01  5.76563701e-02
  -1.48216212e+00  2.51701269e-02  1.86653897e-01  1.20045558e-01
  -5.26722908e-01 -1.78429857e-01]
 [ 9.36972022e-01 -5.02292067e-02 -4.78078008e-01 -3.27753156e-01
  -1.93588996e+00  1.03497751e-01  5.65833509e-01 -8.24224591e-01
  -7.52250552e-02 -2.44655758e-01]
 [ 1.32855490e-01 -1.38087377e-01  1.80403024e-01 -2.90755808e-01
  -3.26747966e+00  3.77359599e-01  4.24232334e-01 -6.11069143e-01
  -2.01536223e-01 -1.60667992e+00]
 [ 2.54829139e-01  5.34144938e-02  5.83149910e-01 -1.91762179e-01
   3.47377777e-01  2.02172697e-01 -3.37806553e-01 -1.96350765e+00
  -1.45002589e-01 -1.99568045e+00]
 [ 6.21662773e-02 -1.71071477e-02 -1.18372507e-01  2.90873796e-01
   2.05830671e-02 -1.87738732e-01 -9.58573222e-02  6.64493665e-02
   4.10272777e-02  2.97078538e+00]
 [-1.92692541e-02  2.34790929e-02  4.21589494e-01 -5.29862940e-01
   1.71050861e-01  1.32944381e+00  2.88421005e-01 -6.61804676e-01
  -9.19997096e-01 -2.28780523e-01]
 [-2.07321402e-02 -1.51435554e-01 -7.83584826e-03 -8.38633060e-01
  -8.94297287e-02 -1.97171479e-01  2.61879057e-01  1.37240410e+00
   1.84758902e-01 -1.08028936e+00]
 [ 3.10957402e-01  3.06698024e-01 -4.49991273e-03  1.88547343e-01
  -3.10425344e-03  1.33790262e-02 -3.49563621e-02 -4.39998433e-02
   7.72845522e-02  1.71889496e+00]
 [-1.91321656e-01 -2.59254919e-03  6.72638655e-01  4.05075938e-01
  -7.32702255e-01 -9.03435349e-01  4.33518559e-01  1.43636119e+00
   3.68725002e-01  8.26981843e-01]
 [-1.19553423e+00 -4.72638249e-01  2.78595388e-01  5.66259444e-01
   1.81516886e+00 -4.46378797e-01 -8.33043277e-01  3.75437212e+00
   1.41055226e-01  1.62607169e+00]
 [ 5.77190578e-01 -2.43218452e-01  1.16055027e-01  2.54428517e-02
   1.74473238e+00 -2.56254613e-01 -4.45838302e-01  1.24503815e+00
   1.80072033e+00  1.09635341e+00]
 [ 7.58353829e-01 -1.98076203e-01 -7.96912968e-01 -4.46387380e-01
  -2.05443263e+00 -8.26299116e-02  4.39148545e-01  3.87409478e-01
  -2.07797617e-01 -1.24876106e+00]
 [ 7.62404740e-01  3.02240074e-01 -1.78495318e-01 -3.77804548e-01
  -1.19816017e+00  2.13503405e-01  5.04232407e-01 -2.73428202e+00
  -3.11893195e-01 -6.32542551e-01]
 [-8.70584011e-01  3.17707926e-01 -4.71562386e-01  4.89425868e-01
   2.31118894e+00  2.71426648e-01  6.27935886e-01 -7.55638629e-02
   1.05885589e+00  6.05583429e-01]
 [ 8.79248857e-01 -4.41452116e-02 -4.67745006e-01 -7.90094435e-02
  -1.95307362e+00  1.44739717e-01  4.97360855e-01 -9.35128212e-01
  -2.42123395e-01 -6.08435739e-03]
 [-8.88313949e-01  3.26321751e-01 -4.62807119e-01  6.46245539e-01
   2.35595322e+00  1.51448488e-01  6.07555449e-01 -1.08561344e-01
   1.09150231e+00  8.65301192e-01]
 [ 1.68708432e-02 -1.27423927e-02 -1.03726378e-02  7.27919698e-01
   3.87586743e-01 -2.04587936e-01 -2.55689472e-01 -4.26710904e-01
   2.46007174e-01  1.81209660e+00]
 [-8.27946126e-01  6.50144458e-01 -7.45262265e-01  4.56766449e-02
   1.42034709e+00  5.99233508e-01  8.32586527e-01  1.37994602e-01
  -8.45386028e-01 -9.29737568e-01]
 [ 5.57524741e-01 -3.98575902e-01  4.38755363e-01 -1.67378455e-01
  -9.88322377e-01 -3.26999962e-01 -4.51627165e-01  2.61859130e-02
   3.23381484e-01  5.58867157e-01]
 [-1.94795817e-01  4.58432036e-03  8.96192133e-01  6.03796244e-01
  -9.11209464e-01 -1.20686102e+00  5.22613704e-01  1.73101223e+00
   4.38649774e-01  1.29059958e+00]
 [ 6.60413980e-01 -2.69672692e-01  1.10229328e-01  1.31659448e-01
   1.94977641e+00 -3.16190153e-01 -5.12367904e-01  1.26764548e+00
   2.08785939e+00  1.51839232e+00]
 [-5.64568400e-01 -1.00552306e-01 -5.81477433e-02 -3.47981811e-01
  -1.28290093e+00 -1.80849284e-01  3.94527733e-01  1.01590216e+00
   6.13610327e-01 -6.40094995e-01]
 [-2.29267538e-01 -6.49624467e-02 -4.99425143e-01  2.38091890e-02
  -3.11572760e-01 -1.62262246e-01  3.45229924e-01  1.73063266e+00
   1.26575768e-01  1.45692372e+00]
 [-1.38330474e-01  1.33721024e-01 -1.72253430e-01  1.21767513e-01
   3.02740431e+00 -3.21386606e-01 -3.84881794e-01  7.23640800e-01
   2.56543875e-01  1.11343753e+00]]","[ 1.2085992   0.6191763   0.03027773 -0.7030413   0.04442953  0.31682897
  0.45503697 -0.7088065   0.54055375  0.51669097  0.44998518 -0.05251722
 -0.67468005 -1.6188157  -0.44181353  2.618797   -1.2014565   0.24797703
  1.4848098   1.0818684   0.23778981  0.33043355 -0.25055498 -0.04487602
  0.848139   -0.70892483  0.8748415   0.24540496 -0.18661837  0.39835358
  1.3698553   0.29614913  0.86417925  0.3803906   1.4566855 ]","[[-2.2408192  -1.5608388   2.0470254   2.3091006  -1.9712999  -3.2755284
  -3.2988658   1.0939455   0.9654104   2.6967883  -3.3921266  -1.0255424
  -2.558506    2.7766054   2.2752767   3.436808    1.612165    0.7045551
   1.3251706  -2.9987676   4.152212   -3.4490006   0.90252995 -3.7425818
  -2.957231    2.4563084   2.0622704  -1.2620806   0.7704465  -1.2974406
   2.2057757   2.9732008   0.76998925 -2.8357248  -3.1033597 ]]",[0.2818663]
"[[ 3.14919911e-02 -7.03999326e-02 -4.52785045e-01  3.64079535e-01
  -1.29657507e-01 -1.31936574e+00 -2.04740897e-01  7.22010076e-01
   9.52495694e-01 -5.12596183e-02]
 [-4.28840607e-01 -2.61255503e-01 -2.74170488e-01  1.04175739e-01
  -1.44449198e+00 -2.61684626e-01  4.46412683e-01 -1.65843487e-01
   2.34883368e-01  6.20721757e-01]
 [ 5.20755768e-01  5.13532937e-01 -8.22783932e-02  2.74434566e-01
  -1.43349731e+00  3.69260460e-01  4.86092299e-01 -2.25284266e+00
  -6.88483417e-01 -1.82979539e-01]
 [ 5.97868741e-01 -9.75920409e-02 -1.27614617e+00 -2.68176854e-01
   7.63156652e-01 -1.57047784e+00  5.15850544e-01 -9.01381075e-01
   1.32245827e+00 -1.59191608e+00]
 [ 4.24391538e-01  4.40220654e-01 -1.10153683e-01  8.28053728e-02
  -1.18517661e+00  4.67010081e-01  5.20328462e-01 -1.67544305e+00
  -3.28103781e-01 -5.63946545e-01]
 [-7.44762123e-01 -2.98816085e-01  1.48855209e-01  1.40316918e-01
   1.12768281e+00 -2.58159041e-01 -4.50193793e-01  2.15837073e+00
   6.22372888e-03  9.64191079e-01]
 [-4.20217097e-01  6.48640394e-02  8.90161574e-01  2.29720250e-01
  -5.33820450e-01  1.05632925e+00 -3.93530577e-01  6.03285372e-01
  -8.97486985e-01  1.15911090e+00]
 [ 4.06687468e-01  3.21090490e-01  4.19522285e-01 -2.20419511e-01
   1.65790308e+00  2.92873234e-01 -5.86472809e-01  7.92470813e-01
  -1.12356003e-02 -1.46607244e+00]
 [-8.73569727e-01  3.28834563e-01 -4.47187990e-01 -1.96027253e-02
   2.50347376e+00  4.55246836e-01  5.85422873e-01  6.47768974e-01
   1.41478896e+00 -8.33888412e-01]
 [-1.43660688e+00 -6.71871006e-01 -1.34389371e-01  2.59653717e-01
   3.58191758e-01  9.40873444e-01 -4.42077696e-01  3.02437395e-01
   1.23365331e+00  2.21802878e+00]
 [-1.14102626e+00 -5.44897199e-01 -1.07491136e-01  1.15788899e-01
   2.77134120e-01  7.70773113e-01 -3.16118866e-01  2.64326960e-01
   1.01012921e+00  1.66350484e+00]
 [ 3.87477249e-01 -1.94482192e-01 -6.11378789e-01  5.76563701e-02
  -1.48216212e+00  2.51701269e-02  1.86653897e-01  1.20045558e-01
  -5.26722908e-01 -1.78429857e-01]
 [ 9.36972022e-01 -5.02292067e-02 -4.78078008e-01 -3.27753156e-01
  -1.93588996e+00  1.03497751e-01  5.65833509e-01 -8.24224591e-01
  -7.52250552e-02 -2.44655758e-01]
 [ 1.32855490e-01 -1.38087377e-01  1.80403024e-01 -2.90755808e-01
  -3.26747966e+00  3.77359599e-01  4.24232334e-01 -6.11069143e-01
  -2.01536223e-01 -1.60667992e+00]
 [ 2.54829139e-01  5.34144938e-02  5.83149910e-01 -1.91762179e-01
   3.47377777e-01  2.02172697e-01 -3.37806553e-01 -1.96350765e+00
  -1.45002589e-01 -1.99568045e+00]
 [ 6.21662773e-02 -1.71071477e-02 -1.18372507e-01  2.90873796e-01
   2.05830671e-02 -1.87738732e-01 -9.58573222e-02  6.64493665e-02
   4.10272777e-02  2.97078538e+00]
 [-1.92692541e-02  2.34790929e-02  4.21589494e-01 -5.29862940e-01
   1.71050861e-01  1.32944381e+00  2.88421005e-01 -6.61804676e-01
  -9.19997096e-01 -2.28780523e-01]
 [-2.07321402e-02 -1.51435554e-01 -7.83584826e-03 -8.38633060e-01
  -8.94297287e-02 -1.97171479e-01  2.61879057e-01  1.37240410e+00
   1.84758902e-01 -1.08028936e+00]
 [ 3.10957402e-01  3.06698024e-01 -4.49991273e-03  1.88547343e-01
  -3.10425344e-03  1.33790262e-02 -3.49563621e-02 -4.39998433e-02
   7.72845522e-02  1.71889496e+00]
 [-1.91321656e-01 -2.59254919e-03  6.72638655e-01  4.05075938e-01
  -7.32702255e-01 -9.03435349e-01  4.33518559e-01  1.43636119e+00
   3.68725002e-01  8.26981843e-01]
 [-1.19553423e+00 -4.72638249e-01  2.78595388e-01  5.66259444e-01
   1.81516886e+00 -4.46378797e-01 -8.33043277e-01  3.75437212e+00
   1.41055226e-01  1.62607169e+00]
 [ 5.77190578e-01 -2.43218452e-01  1.16055027e-01  2.54428517e-02
   1.74473238e+00 -2.56254613e-01 -4.45838302e-01  1.24503815e+00
   1.80072033e+00  1.09635341e+00]
 [ 7.58353829e-01 -1.98076203e-01 -7.96912968e-01 -4.46387380e-01
  -2.05443263e+00 -8.26299116e-02  4.39148545e-01  3.87409478e-01
  -2.07797617e-01 -1.24876106e+00]
 [ 7.62404740e-01  3.02240074e-01 -1.78495318e-01 -3.77804548e-01
  -1.19816017e+00  2.13503405e-01  5.04232407e-01 -2.73428202e+00
  -3.11893195e-01 -6.32542551e-01]
 [-8.70584011e-01  3.17707926e-01 -4.71562386e-01  4.89425868e-01
   2.31118894e+00  2.71426648e-01  6.27935886e-01 -7.55638629e-02
   1.05885589e+00  6.05583429e-01]
 [ 8.79248857e-01 -4.41452116e-02 -4.67745006e-01 -7.90094435e-02
  -1.95307362e+00  1.44739717e-01  4.97360855e-01 -9.35128212e-01
  -2.42123395e-01 -6.08435739e-03]
 [-8.88313949e-01  3.26321751e-01 -4.62807119e-01  6.46245539e-01
   2.35595322e+00  1.51448488e-01  6.07555449e-01 -1.08561344e-01
   1.09150231e+00  8.65301192e-01]
 [ 1.68708432e-02 -1.27423927e-02 -1.03726378e-02  7.27919698e-01
   3.87586743e-01 -2.04587936e-01 -2.55689472e-01 -4.26710904e-01
   2.46007174e-01  1.81209660e+00]
 [-8.27946126e-01  6.50144458e-01 -7.45262265e-01  4.56766449e-02
   1.42034709e+00  5.99233508e-01  8.32586527e-01  1.37994602e-01
  -8.45386028e-01 -9.29737568e-01]
 [ 5.57524741e-01 -3.98575902e-01  4.38755363e-01 -1.67378455e-01
  -9.88322377e-01 -3.26999962e-01 -4.51627165e-01  2.61859130e-02
   3.23381484e-01  5.58867157e-01]
 [-1.94795817e-01  4.58432036e-03  8.96192133e-01  6.03796244e-01
  -9.11209464e-01 -1.20686102e+00  5.22613704e-01  1.73101223e+00
   4.38649774e-01  1.29059958e+00]
 [ 6.60413980e-01 -2.69672692e-01  1.10229328e-01  1.31659448e-01
   1.94977641e+00 -3.16190153e-01 -5.12367904e-01  1.26764548e+00
   2.08785939e+00  1.51839232e+00]
 [-5.64568400e-01 -1.00552306e-01 -5.81477433e-02 -3.47981811e-01
  -1.28290093e+00 -1.80849284e-01  3.94527733e-01  1.01590216e+00
   6.13610327e-01 -6.40094995e-01]
 [-2.29267538e-01 -6.49624467e-02 -4.99425143e-01  2.38091890e-02
  -3.11572760e-01 -1.62262246e-01  3.45229924e-01  1.73063266e+00
   1.26575768e-01  1.45692372e+00]
 [-1.38330474e-01  1.33721024e-01 -1.72253430e-01  1.21767513e-01
   3.02740431e+00 -3.21386606e-01 -3.84881794e-01  7.23640800e-01
